{"learner":{"attributes":{"scikit_learn":"{\"_estimator_type\": \"regressor\"}"},"feature_names":["rgb1_r","rgb1_g","rgb1_b","rgb2_r","rgb2_g","rgb2_b","rgb3_r","rgb3_g","rgb3_b","target_r","target_g","target_b"],"feature_types":["int","int","int","int","int","int","int","int","int","int","int","int"],"gradient_booster":{"model":{"gbtree_model_param":{"num_parallel_tree":"1","num_trees":"25"},"iteration_indptr":[0,1,2,3,4,5,6,7,8,9,10,11,12,13,14,15,16,17,18,19,20,21,22,23,24,25],"tree_info":[0,0,0,0,0,0,0,0,0,0,0,0,0,0,0,0,0,0,0,0,0,0,0,0,0],"trees":[{"base_weights":[9.401853E-9,-1.1848667E-2,1.7578037E-1,-1.8216702E-3,-1.3845806E-1,-3.999143E-1,2.3896453E-1,2.3492202E-1,-7.6222597E-3,-2.3191994E-1,-1.4488421E-2,-7.7699753E-3,-4.162153E-2,3.3597612E-1,1.1044226E-1,3.214176E-1,-2.809808E-1,-1.34189455E-2,1.3145147E-1,-2.9301128E-1,-1.5028487E-1,1.0568221E-1,-1.884623E-1,3.776273E-1,2.145241E-1,3.6708772E-2,2.2872964E-1,3.7446594E-1,1.7720585E-1,-3.6188085E-2,-3.5654705E-2,-3.0957356E-3,-1.004828E-1,-1.8393463E-1,2.2503135E-1,-1.08315395E-2,-3.0931455E-1,-6.356947E-2,-2.4223176E-1,2.1806352E-1,7.0546246E-3,-2.5950962E-1,-8.365412E-2,3.8308676E-2,1.480215E-2,2.6414737E-1,-1.6949141E-2,1.1875591E-1,-6.0225215E-2,-1.6175438E-2,2.5274E-1,3.9354775E-2,2.2618683E-2,-1.03746526E-1,3.448179E-2,-9.599966E-3,4.171753E-3,-1.11919055E-2,1.3800517E-1,-2.2997169E-1,9.0477996E-2,-3.3045226E-1,3.185936E-2,2.954199E-1,9.777733E-2,-6.581605E-4,-3.1535846E-1,-1.4074203E-1,-2.351359E-2,-2.615198E-1,7.176453E-3,5.5412683E-3,2.2342544E-2,4.0705264E-2,-2.5328517E-2,-3.101895E-1,-4.5827404E-3,-1.2108131E-1,9.393933E-2,1.7761028E-1,3.2426976E-2,-7.178478E-2,1.0119671E-2,-1.2250587E-1,2.168857E-1,9.119117E-3,-2.5621315E-2,-1.4818991E-2,2.7769998E-1,-2.030055E-2,-3.3656731E-3,2.714818E-3,-8.991767E-2,-3.6470607E-1,2.393074E-1,-3.96914E-2,-1.8397738E-1,1.8694441E-1,-9.292619E-2,-3.8091388E-2,-1.8362316E-1,-1.820771E-2,1.1899508E-1,8.8300504E-2,3.492312E-1,-2.0535891E-1,1.6529655E-1,-1.7756209E-1,-3.379148E-2,-1.9489443E-2,1.4476757E-2,3.2791413E-2,-6.620623E-2,-2.7238358E-2,-2.7554035E-3,1.01297855E-1,-4.8194885E-2,-3.3606496E-2,-9.466599E-3,9.012261E-3,-6.619206E-3,-6.429097E-2,-2.70022E-2,1.6774714E-3,1.2413427E-2,2.648546E-1,3.739504E-3,-1.2385726E-2,-1.2499097E-2,3.5572298E-2,-2.4995757E-2,7.723935E-2,2.5699785E-1,-1.0080043E-1,1.1789878E-1,5.251506E-3,2.8592235E-1,-1.9699216E-3,8.645247E-3,1.834571E-1,-2.0900222E-3,-2.6392072E-1,3.2358445E-2,-3.9705463E-2,-8.139468E-3,3.1556502E-1,1.1420299E-1,-8.814718E-2,-2.8379446E-1,2.82564E-1,3.970982E-2,1.43433185E-2,-2.6396486E-1,-2.1535352E-2,-2.835089E-3,1.4637843E-2,1.9360354E-2,-5.1174164E-2,1.8981265E-2,1.8294325E-1,3.658591E-2,-2.3297442E-2,-4.7448473E-3,8.444977E-2,2.311164E-1,-2.2078443E-2,-1.7522594E-3,-2.1857829E-3,4.3572965E-3,-4.2088527E-2,6.4766146E-2,-8.260414E-3,4.068747E-3,-3.4877732E-3,1.3019282E-1,-1.4413232E-1,3.9785456E-2,-7.11219E-3,-8.778013E-2,2.1564811E-3,3.091996E-2,-1.536727E-3,-3.2113196E-4,1.2466413E-2,-3.5679687E-2,1.1590079E-2,1.283146E-2,2.791138E-1,6.86121E-4,1.6659765E-2,-2.1769941E-1,4.2423204E-2,1.5469948E-2,3.0732987E-2,1.5595242E-1,-2.6898086E-5,1.323685E-3,-5.142073E-2,3.974182E-2,-7.566687E-2,8.096502E-3,-3.0420318E-1,-1.6848473E-1,9.943265E-2,-5.0738156E-2,3.6204364E-2,2.0131105E-1,2.6185822E-1,6.4378195E-2,-1.8916532E-1,-2.3161054E-2,-6.6074386E-2,-2.9628563E-1,2.0348126E-1,3.2559624E-1,-2.9209992E-2,8.3151616E-2,1.2331269E-1,-8.602369E-2,-3.6329057E-2,-1.04090735E-1,4.1852477E-3,-3.3503026E-3,-1.329761E-2,1.3801679E-2,6.892667E-3,2.3597877E-2,1.3400577E-1,-1.8186033E-3,-4.233837E-3,2.626957E-2,-1.025945E-3,-5.2873343E-3,9.164805E-3,7.334908E-3,5.886571E-3,-9.52741E-3,2.2288859E-2,1.886681E-1,-5.9705744E-3,-1.8051479E-2,9.158161E-3,-9.00802E-3,-3.6363439E-3,1.4759372E-2,-1.0363246E-2,-3.2099534E-3,8.083791E-4,-6.1603324E-3,-1.1758954E-4,2.0423084E-3,3.1216666E-2,1.4322965E-1,-2.4781791E-2,-3.3553392E-3,6.820783E-3,1.1092385E-3,1.8374028E-2,2.24005E-3,4.3513835E-4,-2.0845292E-2,2.0772247E-3,-2.3770742E-2,1.2049115E-3,-1.8717023E-2,-2.3182133E-2,-3.364017E-2,3.3872155E-4,-2.4023918E-2,6.564447E-3,2.5273448E-2,-1.6111039E-2,1.974529E-3,2.2784853E-2,-1.1164436E-2,1.06812855E-2,2.9573787E-2,-1.3266662E-2,1.5932404E-2,-5.1742406E-3,-2.009076E-2,5.2828803E-3,-1.229368E-2,-8.06561E-3,-1.116462E-3,-3.4345623E-2,-2.1543253E-2,2.2608832E-2,3.769024E-3,3.331934E-2,8.682668E-3,9.9826604E-5,1.6521422E-2,-1.6222125E-2,1.7306326E-2,1.21563084E-4,-1.3604839E-2,-1.8234137E-2,3.4940343E-3,1.4495814E-2,3.4145804E-3,-4.9512256E-3,4.6481253E-3,2.0293296E-4,8.973032E-4,-8.342266E-4,4.5490367E-3,2.2862641E-2,1.0154279E-2,1.3691813E-3,-2.113857E-3,-2.4057925E-5,2.2379637E-3,2.5540085E-3,1.7394615E-2],"categories":[],"categories_nodes":[],"categories_segments":[],"categories_sizes":[],"default_left":[0,0,0,0,0,0,0,0,0,0,0,0,0,0,0,0,0,0,0,0,0,0,0,0,0,0,0,0,0,0,0,0,0,0,0,0,0,0,0,0,0,0,0,0,0,0,0,0,0,0,0,0,0,0,0,0,0,0,0,0,0,0,0,0,0,0,0,0,0,0,0,0,0,0,0,0,0,0,0,0,0,0,0,0,0,0,0,0,0,0,0,0,0,0,0,0,0,0,0,0,0,0,0,0,0,0,0,0,0,0,0,0,0,0,0,0,0,0,0,0,0,0,0,0,0,0,0,0,0,0,0,0,0,0,0,0,0,0,0,0,0,0,0,0,0,0,0,0,0,0,0,0,0,0,0,0,0,0,0,0,0,0,0,0,0,0,0,0,0,0,0,0,0,0,0,0,0,0,0,0,0,0,0,0,0,0,0,0,0,0,0,0,0,0,0,0,0,0,0,0,0,0,0,0,0,0,0,0,0,0,0,0,0,0,0,0,0,0,0,0,0,0,0,0,0,0,0,0,0,0,0,0,0,0,0,0,0,0,0,0,0,0,0,0,0,0,0,0,0,0,0,0,0,0,0,0,0,0,0,0,0,0,0,0,0,0,0,0,0,0,0,0,0,0,0,0,0,0,0,0,0,0,0,0,0,0,0,0,0,0,0,0,0,0,0,0,0,0,0,0,0,0,0,0,0,0,0,0,0,0,0,0,0,0,0],"id":0,"left_children":[1,3,5,7,9,11,13,15,17,19,21,-1,-1,23,25,27,29,31,33,35,37,39,41,43,45,47,49,51,53,55,-1,57,59,61,63,-1,65,67,69,71,73,75,77,-1,-1,79,81,83,85,-1,87,-1,-1,89,-1,-1,-1,91,93,95,97,99,101,103,105,-1,107,109,111,113,-1,-1,-1,115,-1,117,119,121,123,125,-1,127,-1,129,131,133,-1,-1,135,-1,137,139,141,143,145,-1,147,149,151,-1,153,-1,155,157,159,161,163,165,-1,-1,167,169,171,-1,-1,173,175,-1,-1,-1,-1,177,-1,-1,-1,179,-1,181,-1,183,-1,185,187,189,191,-1,193,-1,195,197,199,201,203,-1,-1,205,207,209,211,213,215,217,219,-1,-1,221,-1,223,-1,225,-1,-1,-1,227,229,-1,-1,-1,-1,231,233,-1,-1,235,237,239,241,243,245,-1,-1,-1,-1,-1,247,-1,249,251,-1,-1,253,255,-1,-1,257,-1,-1,259,-1,261,263,265,267,269,271,-1,273,275,277,279,281,283,285,287,289,-1,291,293,295,-1,297,-1,-1,-1,-1,-1,-1,299,301,-1,-1,-1,-1,-1,303,-1,-1,305,307,-1,-1,-1,309,-1,311,-1,-1,-1,-1,-1,-1,-1,313,-1,-1,-1,-1,-1,-1,-1,-1,-1,-1,-1,-1,-1,-1,-1,-1,-1,-1,-1,-1,-1,-1,-1,-1,-1,-1,-1,-1,-1,-1,-1,-1,-1,-1,-1,-1,-1,-1,-1,-1,-1,-1,-1,-1,-1,-1,-1,-1,-1,-1,-1,-1,-1,-1,-1,-1,-1,-1,-1,-1,-1,-1],"loss_changes":[5.211077E0,2.9754837E0,5.84278E0,2.9858694E0,1.9895072E0,5.1698685E-2,1.7458401E0,2.4107244E0,1.7124498E0,4.4471025E-1,1.5879084E0,0E0,0E0,3.287382E-1,5.4107326E-1,2.7790117E-1,1.3508171E-1,1.8313993E0,2.5500631E0,1.3210964E-1,3.354227E-1,4.9723697E-1,2.0912766E-1,1.7252922E-2,2.6866555E-1,3.2527834E-1,2.6589763E-1,1.5268326E-3,6.9504774E-1,1.798384E-2,0E0,2.0840976E0,5.3619046E0,6.428804E-1,5.622914E-1,0E0,8.9408875E-2,7.087981E-2,1.4595163E-1,5.9339404E-3,2.2932506E-1,2.3113227E-1,1.0442982E-1,0E0,0E0,4.1259885E-2,3.96574E-2,5.474191E-1,2.6055884E-1,0E0,2.7131808E-1,0E0,0E0,5.909895E-2,0E0,0E0,0E0,1.8888042E0,5.1289287E0,9.1749E-1,1.5742984E0,1.8966198E-2,1.8943985E-1,4.372685E-1,5.4563326E-1,0E0,9.2300415E-2,7.006517E-2,4.3035753E-2,4.3329716E-2,0E0,0E0,0E0,1.2877591E-1,0E0,5.1837802E-2,2.930433E-2,8.414073E-2,4.9076267E-3,1.12425625E-1,0E0,1.1093486E-2,0E0,1.4992289E-1,6.977391E-2,1.9123942E-1,0E0,0E0,2.5718927E-2,0E0,9.5502805E-4,1.2743818E0,5.5191317E0,1.2348175E-1,7.55795E-1,0E0,9.6022916E-1,8.0533314E-1,5.725504E-1,0E0,1.8528745E-2,0E0,5.1667593E-2,1.5129723E-1,2.4313927E-2,1.0749593E-2,9.222996E-2,5.8386803E-2,0E0,0E0,4.1240063E-3,2.1880046E-2,2.088929E-2,0E0,0E0,4.2842954E-2,9.014044E-2,0E0,0E0,0E0,0E0,1.2806509E-2,0E0,0E0,0E0,5.8064282E-2,0E0,3.2712473E-5,0E0,2.9839857E-2,0E0,1.0963336E-2,6.44691E-2,2.8633666E-1,1.5657589E-2,0E0,1.0500193E-2,0E0,1.2635227E-4,1.9301147E0,1.0723866E0,3.600974E-1,8.5781157E-1,0E0,0E0,1.9794512E-1,2.2591949E-1,3.5011673E-1,1.16402626E-1,5.285597E-2,3.7023437E-1,2.2934641E-1,1.5274012E-1,0E0,0E0,6.6427286E-3,0E0,9.5733866E-2,0E0,1.39694065E-2,0E0,0E0,0E0,4.7269993E-2,1.0611278E-1,0E0,0E0,0E0,0E0,4.8736017E-4,8.590931E-3,0E0,0E0,2.8501166E-2,6.5201685E-2,4.5804754E-3,1.5988853E-2,3.0957833E-3,2.8521195E-3,0E0,0E0,0E0,0E0,0E0,3.9015135E-3,0E0,3.4303113E-4,4.693389E-3,0E0,0E0,2.4962097E-2,2.4748268E-3,0E0,0E0,1.4439739E-2,0E0,0E0,1.6730937E-1,0E0,2.7240438E0,9.724251E-1,9.447765E-2,4.2012125E-1,4.2369145E-1,5.399608E-1,0E0,1.6662389E-1,1.0434449E-2,5.075602E-1,2.3491442E-2,2.6428068E-1,2.30222E-3,1.0526085E-1,4.769939E-2,9.16338E-3,0E0,1.4815286E-1,1.7012931E-1,4.8170708E-2,0E0,7.164668E-2,0E0,0E0,0E0,0E0,0E0,0E0,2.7062E-3,1.3819375E-2,0E0,0E0,0E0,0E0,0E0,7.864364E-6,0E0,0E0,3.932934E-3,1.1543036E-3,0E0,0E0,0E0,1.3908711E-3,0E0,3.482949E-4,0E0,0E0,0E0,0E0,0E0,0E0,0E0,1.0017447E-2,0E0,0E0,0E0,0E0,0E0,0E0,0E0,0E0,0E0,0E0,0E0,0E0,0E0,0E0,0E0,0E0,0E0,0E0,0E0,0E0,0E0,0E0,0E0,0E0,0E0,0E0,0E0,0E0,0E0,0E0,0E0,0E0,0E0,0E0,0E0,0E0,0E0,0E0,0E0,0E0,0E0,0E0,0E0,0E0,0E0,0E0,0E0,0E0,0E0,0E0,0E0,0E0,0E0,0E0,0E0,0E0,0E0,0E0,0E0,0E0,0E0,0E0],"parents":[2147483647,0,0,1,1,2,2,3,3,4,4,5,5,6,6,7,7,8,8,9,9,10,10,13,13,14,14,15,15,16,16,17,17,18,18,19,19,20,20,21,21,22,22,23,23,24,24,25,25,26,26,27,27,28,28,29,29,31,31,32,32,33,33,34,34,36,36,37,37,38,38,39,39,40,40,41,41,42,42,45,45,46,46,47,47,48,48,50,50,53,53,57,57,58,58,59,59,60,60,61,61,62,62,63,63,64,64,66,66,67,67,68,68,69,69,73,73,75,75,76,76,77,77,78,78,79,79,81,81,83,83,84,84,85,85,88,88,90,90,91,91,92,92,93,93,94,94,96,96,97,97,98,98,100,100,102,102,103,103,104,104,105,105,106,106,107,107,110,110,111,111,112,112,115,115,116,116,121,121,125,125,127,127,129,129,131,131,132,132,133,133,134,134,136,136,138,138,139,139,140,140,141,141,142,142,145,145,146,146,147,147,148,148,149,149,150,150,151,151,152,152,155,155,157,157,159,159,163,163,164,164,169,169,170,170,173,173,174,174,175,175,176,176,177,177,178,178,184,184,186,186,187,187,190,190,191,191,194,194,197,197,199,199,200,200,201,201,202,202,203,203,204,204,206,206,207,207,208,208,209,209,210,210,211,211,212,212,213,213,214,214,216,216,217,217,218,218,220,220,227,227,228,228,234,234,237,237,238,238,242,242,244,244,252,252],"right_children":[2,4,6,8,10,12,14,16,18,20,22,-1,-1,24,26,28,30,32,34,36,38,40,42,44,46,48,50,52,54,56,-1,58,60,62,64,-1,66,68,70,72,74,76,78,-1,-1,80,82,84,86,-1,88,-1,-1,90,-1,-1,-1,92,94,96,98,100,102,104,106,-1,108,110,112,114,-1,-1,-1,116,-1,118,120,122,124,126,-1,128,-1,130,132,134,-1,-1,136,-1,138,140,142,144,146,-1,148,150,152,-1,154,-1,156,158,160,162,164,166,-1,-1,168,170,172,-1,-1,174,176,-1,-1,-1,-1,178,-1,-1,-1,180,-1,182,-1,184,-1,186,188,190,192,-1,194,-1,196,198,200,202,204,-1,-1,206,208,210,212,214,216,218,220,-1,-1,222,-1,224,-1,226,-1,-1,-1,228,230,-1,-1,-1,-1,232,234,-1,-1,236,238,240,242,244,246,-1,-1,-1,-1,-1,248,-1,250,252,-1,-1,254,256,-1,-1,258,-1,-1,260,-1,262,264,266,268,270,272,-1,274,276,278,280,282,284,286,288,290,-1,292,294,296,-1,298,-1,-1,-1,-1,-1,-1,300,302,-1,-1,-1,-1,-1,304,-1,-1,306,308,-1,-1,-1,310,-1,312,-1,-1,-1,-1,-1,-1,-1,314,-1,-1,-1,-1,-1,-1,-1,-1,-1,-1,-1,-1,-1,-1,-1,-1,-1,-1,-1,-1,-1,-1,-1,-1,-1,-1,-1,-1,-1,-1,-1,-1,-1,-1,-1,-1,-1,-1,-1,-1,-1,-1,-1,-1,-1,-1,-1,-1,-1,-1,-1,-1,-1,-1,-1,-1,-1,-1,-1,-1,-1,-1],"split_conditions":[2.19E2,2.35E2,2.08E2,2.5E1,1.85E2,1.2E1,2.05E2,2.6E1,2.21E2,1.49E2,1.72E2,-7.7699753E-3,-4.162153E-2,2.19E2,2.38E2,2.08E2,3E1,2.19E2,2.28E2,2.3E1,1.43E2,1.67E2,2.07E2,1.97E2,1.79E2,8.7E1,3.8E1,2.08E2,1.92E2,1.2E2,-3.5654705E-2,2.11E2,1.81E2,2.48E2,2.15E2,-1.08315395E-2,3.6E1,4.6E1,2.04E2,1.86E2,1.74E2,1.61E2,1.36E2,3.8308676E-2,1.480215E-2,1.89E2,1.67E2,9.2E1,1.32E2,-1.6175438E-2,3.1E1,3.9354775E-2,2.2618683E-2,2.44E2,3.448179E-2,-9.599966E-3,4.171753E-3,2.13E2,2.1E2,9E1,1.75E2,1.57E2,9.3E1,5E1,5.7E1,-6.581605E-4,2.1E1,2.08E2,1.31E2,2.25E2,7.176453E-3,5.5412683E-3,2.2342544E-2,1.4E2,-2.5328517E-2,2.02E2,2.1E1,8.3E1,8.5E1,1.89E2,3.2426976E-2,1.87E2,1.0119671E-2,1.8E1,2.25E2,6.4E1,-2.5621315E-2,-1.4818991E-2,6.3E1,-2.030055E-2,1.2E1,2.1E1,1.55E2,1.89E2,2.05E2,-3.96914E-2,1.16E2,1.64E2,1.41E2,-3.8091388E-2,9.1E1,-1.820771E-2,1.45E2,8.5E1,2.9E1,1.59E2,1.66E2,1.09E2,-3.379148E-2,-1.9489443E-2,2.21E2,1.17E2,2.44E2,-2.7238358E-2,-2.7554035E-3,5.5E1,1.65E2,-3.3606496E-2,-9.466599E-3,9.012261E-3,-6.619206E-3,8.9E1,-2.70022E-2,1.6774714E-3,1.2413427E-2,1E2,3.739504E-3,1.6E2,-1.2499097E-2,5.6E1,-2.4995757E-2,2.24E2,2.37E2,4.5E1,7.6E1,5.251506E-3,1.49E2,-1.9699216E-3,2.45E2,2.1E1,2.7E1,1.34E2,1.34E2,-3.9705463E-2,-8.139468E-3,1.98E2,6.1E1,1.28E2,2.3E1,1.99E2,7E0,2.41E2,2.05E2,-2.1535352E-2,-2.835089E-3,1.43E2,1.9360354E-2,1.59E2,1.8981265E-2,2.36E2,3.658591E-2,-2.3297442E-2,-4.7448473E-3,1.74E2,2.28E2,-2.2078443E-2,-1.7522594E-3,-2.1857829E-3,4.3572965E-3,8.6E1,1.87E2,-8.260414E-3,4.068747E-3,3.7E1,2.08E2,1.2E2,2.08E2,1.8E1,2.13E2,2.1564811E-3,3.091996E-2,-1.536727E-3,-3.2113196E-4,1.2466413E-2,6.2E1,1.1590079E-2,1.3E2,2.34E2,6.86121E-4,1.6659765E-2,6.2E1,2.29E2,1.5469948E-2,3.0732987E-2,1.28E2,-2.6898086E-5,1.323685E-3,2.4E1,3.974182E-2,8.5E1,2.02E2,3.4E1,3.9E1,1.98E2,1.86E2,3.6204364E-2,1.35E2,6.9E1,3.2E1,1E1,8.2E1,1.41E2,1.57E2,1.34E2,2.11E2,-2.9209992E-2,2.04E2,7.3E1,9.2E1,-3.6329057E-2,2.05E2,4.1852477E-3,-3.3503026E-3,-1.329761E-2,1.3801679E-2,6.892667E-3,2.3597877E-2,1.97E2,1.23E2,-4.233837E-3,2.626957E-2,-1.025945E-3,-5.2873343E-3,9.164805E-3,5E1,5.886571E-3,-9.52741E-3,1.89E2,1.25E2,-5.9705744E-3,-1.8051479E-2,9.158161E-3,2.11E2,-3.6363439E-3,1.39E2,-1.0363246E-2,-3.2099534E-3,8.083791E-4,-6.1603324E-3,-1.1758954E-4,2.0423084E-3,3.1216666E-2,1.3E2,-2.4781791E-2,-3.3553392E-3,6.820783E-3,1.1092385E-3,1.8374028E-2,2.24005E-3,4.3513835E-4,-2.0845292E-2,2.0772247E-3,-2.3770742E-2,1.2049115E-3,-1.8717023E-2,-2.3182133E-2,-3.364017E-2,3.3872155E-4,-2.4023918E-2,6.564447E-3,2.5273448E-2,-1.6111039E-2,1.974529E-3,2.2784853E-2,-1.1164436E-2,1.06812855E-2,2.9573787E-2,-1.3266662E-2,1.5932404E-2,-5.1742406E-3,-2.009076E-2,5.2828803E-3,-1.229368E-2,-8.06561E-3,-1.116462E-3,-3.4345623E-2,-2.1543253E-2,2.2608832E-2,3.769024E-3,3.331934E-2,8.682668E-3,9.9826604E-5,1.6521422E-2,-1.6222125E-2,1.7306326E-2,1.21563084E-4,-1.3604839E-2,-1.8234137E-2,3.4940343E-3,1.4495814E-2,3.4145804E-3,-4.9512256E-3,4.6481253E-3,2.0293296E-4,8.973032E-4,-8.342266E-4,4.5490367E-3,2.2862641E-2,1.0154279E-2,1.3691813E-3,-2.113857E-3,-2.4057925E-5,2.2379637E-3,2.5540085E-3,1.7394615E-2],"split_indices":[10,1,1,10,10,2,4,1,11,10,4,0,0,7,10,0,1,2,2,2,7,7,10,4,0,3,9,6,9,9,0,9,11,5,8,0,11,7,11,10,8,6,11,0,0,11,9,9,11,0,0,0,0,0,0,0,0,0,0,11,5,9,9,3,10,0,7,9,9,0,0,0,0,9,0,3,2,8,0,2,0,0,0,0,10,11,0,0,11,0,10,9,9,0,6,0,5,8,8,0,10,0,9,9,4,9,9,10,0,0,9,8,1,0,0,9,0,0,0,0,0,11,0,0,0,9,0,9,0,9,0,10,10,11,6,0,2,0,0,6,1,9,3,0,0,3,10,11,8,11,1,2,11,0,0,9,0,10,0,11,0,0,0,0,11,0,0,0,0,0,11,0,0,0,10,0,0,0,10,0,0,0,0,0,9,0,0,10,0,0,11,1,0,0,9,0,0,0,0,10,9,6,3,9,9,0,11,11,1,8,8,0,11,8,1,0,11,10,6,0,9,0,0,0,0,0,0,10,9,0,0,0,0,0,0,0,0,2,9,0,0,0,9,0,0,0,0,0,0,0,0,0,0,0,0,0,0,0,0,0,0,0,0,0,0,0,0,0,0,0,0,0,0,0,0,0,0,0,0,0,0,0,0,0,0,0,0,0,0,0,0,0,0,0,0,0,0,0,0,0,0,0,0,0,0,0,0,0,0,0,0,0,0,0,0],"split_type":[0,0,0,0,0,0,0,0,0,0,0,0,0,0,0,0,0,0,0,0,0,0,0,0,0,0,0,0,0,0,0,0,0,0,0,0,0,0,0,0,0,0,0,0,0,0,0,0,0,0,0,0,0,0,0,0,0,0,0,0,0,0,0,0,0,0,0,0,0,0,0,0,0,0,0,0,0,0,0,0,0,0,0,0,0,0,0,0,0,0,0,0,0,0,0,0,0,0,0,0,0,0,0,0,0,0,0,0,0,0,0,0,0,0,0,0,0,0,0,0,0,0,0,0,0,0,0,0,0,0,0,0,0,0,0,0,0,0,0,0,0,0,0,0,0,0,0,0,0,0,0,0,0,0,0,0,0,0,0,0,0,0,0,0,0,0,0,0,0,0,0,0,0,0,0,0,0,0,0,0,0,0,0,0,0,0,0,0,0,0,0,0,0,0,0,0,0,0,0,0,0,0,0,0,0,0,0,0,0,0,0,0,0,0,0,0,0,0,0,0,0,0,0,0,0,0,0,0,0,0,0,0,0,0,0,0,0,0,0,0,0,0,0,0,0,0,0,0,0,0,0,0,0,0,0,0,0,0,0,0,0,0,0,0,0,0,0,0,0,0,0,0,0,0,0,0,0,0,0,0,0,0,0,0,0,0,0,0,0,0,0,0,0,0,0,0,0,0,0,0,0,0,0,0,0,0,0,0,0,0,0,0,0,0,0],"sum_hessian":[2.5E3,2.343E3,1.57E2,2.172E3,1.71E2,1.5E1,1.42E2,5.1E1,2.121E3,9.7E1,7.4E1,1E0,1.4E1,8E1,6.2E1,4.4E1,7E0,2.037E3,8.4E1,5.4E1,4.3E1,4.4E1,3E1,5.8E1,2.2E1,3.9E1,2.3E1,3.1E1,1.3E1,2E0,5E0,1.822E3,2.15E2,1.9E1,6.5E1,5E0,4.9E1,2.3E1,2E1,2E1,2.4E1,1.7E1,1.3E1,5.6E1,2E0,1.8E1,4E0,2.1E1,1.8E1,1E0,2.2E1,2.6E1,5E0,5E0,8E0,1E0,1E0,1.724E3,9.8E1,1.28E2,8.7E1,1.1E1,8E0,4.1E1,2.4E1,1E0,4.8E1,7E0,1.6E1,1.9E1,1E0,1E0,1.9E1,2.2E1,2E0,1.4E1,3E0,1.1E1,2E0,9E0,9E0,3E0,1E0,6E0,1.5E1,1.4E1,4E0,1E0,2.1E1,2E0,3E0,1.466E3,2.58E2,1.6E1,8.2E1,2.6E1,1.02E2,5.7E1,3E1,7E0,4E0,2E0,6E0,9E0,3.2E1,4E0,2E1,8E0,4E1,5E0,2E0,7E0,9E0,1.8E1,1E0,1.3E1,9E0,1.2E1,2E0,1E0,2E0,9E0,2E0,1E0,1E0,5E0,4E0,2E0,1E0,3E0,3E0,4E0,1.1E1,7E0,7E0,1E0,2E1,1E0,2E0,3.7E1,1.429E3,1.06E2,1.52E2,1.4E1,2E0,5E1,3.2E1,5.3E1,4.9E1,3.4E1,2.3E1,1.9E1,1.1E1,3E0,1E0,3E0,3E0,4E0,5E0,4E0,2.8E1,3E0,1E0,1E1,1E1,6E0,2E0,1E0,1E0,2E0,5E0,8E0,1E0,3E0,1E1,4E0,5E0,3E0,6E0,1E0,4E0,1E0,1E0,1E0,2E0,2E0,2E0,1E1,1E0,2E0,5E0,3E0,4E0,1.6E1,4E0,1E0,1E0,1.8E1,1.9E1,1.73E2,1.256E3,7.3E1,3.3E1,8.4E1,6.8E1,3.4E1,1.6E1,7E0,2.5E1,2E1,3.3E1,3E0,4.6E1,1.4E1,2E1,2E0,2.1E1,9E0,1E1,6E0,5E0,2E0,1E0,3E0,1E0,2E0,2E0,6E0,4E0,1E0,9E0,1E0,1E0,3E0,2E0,2E0,1E0,4E0,6E0,2E0,2E0,2E0,3E0,1E0,2E0,4E0,2E0,1E0,1E0,1E0,1E0,7E0,3E0,4E0,1E0,1E0,2E0,3E0,1E0,1.4E1,4E0,1.09E2,6.4E1,1.232E3,2.4E1,2.5E1,4.8E1,1E1,2.3E1,7E1,1.4E1,2.6E1,4.2E1,1.5E1,1E0,2E0,5E0,8E0,1.7E1,2E0,1.8E1,1.9E1,1.4E1,2E0,1E0,2.7E1,1.9E1,1.2E1,2E0,1.9E1,1E0,1.1E1,1E1,1E0,8E0,4E0,6E0,3E0,2E0,5E0,1E0,2E0,2E0,1E0,1E0,2E0,2E0,3E0,3E0,1E0,2E0,1E0,1E0,1E0,2E0],"tree_param":{"num_deleted":"0","num_feature":"12","num_nodes":"315","size_leaf_vector":"1"}},{"base_weights":[-5.6897417E-5,-1.0779174E-2,1.590132E-1,5.3840136E-4,-1.0309026E-1,-3.630098E-1,2.1630938E-1,2.1209133E-1,-4.8596803E-3,-2.042536E-1,2.471192E-2,-7.3814765E-3,-3.773685E-2,3.0383673E-1,1.0034073E-1,2.909532E-1,-2.5801808E-1,-1.0156357E-2,1.216093E-1,-2.9013553E-1,-1.3867466E-1,1.0422864E-1,-1.3706437E-1,3.4714073E-1,2.0947058E-1,5.7701524E-2,2.767489E-1,3.38956E-1,1.6045013E-1,-7.114735E-2,-3.5591107E-2,9.9116504E-2,-1.6843444E-2,-2.7131855E-1,1.8630683E-1,-9.928911E-3,-3.0540237E-1,1.08878404E-1,-1.6653202E-1,2.1567187E-1,2.018741E-2,-6.421197E-2,-2.4449058E-1,3.525219E-2,1.3815339E-2,7.47402E-2,2.5082165E-1,1.0432211E-1,-9.018502E-2,3.052551E-2,1.4342271E-1,2.1418558E-1,3.5951126E-2,-9.6867494E-2,3.1416744E-2,-1.2128425E-2,3.9631664E-3,-8.6137585E-2,2.826317E-1,-6.391802E-3,-1.0627206E-1,-3.5938557E-2,-1.2335391E-1,2.7134123E-1,7.419174E-2,-2.4003638E-1,-3.4063813E-1,1.7548606E-3,1.1810105E-2,-1.015979E-1,-2.2386616E-1,2.2796069E-1,1.223787E-1,1.4526531E-1,-1.0782549E-2,-9.439769E-2,6.9373265E-2,-3.1013412E-2,-9.433628E-2,1.193435E-1,-1.1874142E-2,3.8733275E-3,2.5948942E-2,-6.5629914E-2,1.7104977E-1,8.4733315E-2,-2.5221977E-2,1.770433E-2,2.1280467E-3,4.313348E-2,2.7397973E-2,-1.894718E-2,-3.1973869E-3,1.941413E-2,-3.1591153E-1,1.4250009E-1,3.4894753E-2,-1.4283104E-2,1.4304948E-1,-2.0961426E-1,7.0311576E-2,-4.2832294E-3,-1.8181846E-2,8.1418976E-2,3.2385353E-2,-1.9967115E-2,1.3230231E-1,-1.1898656E-1,-2.5925813E-2,-3.5054237E-2,-1.2144673E-2,-1.128418E-2,-1.69871E-1,-1.4011672E-1,-2.9642228E-2,6.508374E-3,2.3158265E-2,-2.5176778E-3,1.5692515E-2,5.494134E-3,1.632234E-2,6.719926E-2,-6.7006476E-2,-1.4602388E-1,5.040076E-2,-8.920054E-3,1.2454215E-2,-1.4213167E-2,8.363326E-4,1.7414077E-1,-1.1766444E-2,1.05776645E-1,-1.6455528E-1,-1.5366665E-2,1.8813488E-1,-4.031509E-2,1.428157E-2,1.654019E-2,-1.0070169E-2,-1.871425E-3,8.212984E-3,2.6200503E-1,-9.3910724E-2,-3.497292E-1,-3.0246824E-2,2.1706071E-1,6.176314E-2,-8.7643564E-2,-4.307634E-3,-3.5145756E-2,2.1560466E-1,-3.5256445E-2,-1.7100845E-1,1.9223689E-1,-3.2034595E-2,2.0508498E-3,-2.6933344E-3,-4.5955934E-2,1.7399492E-2,2.56493E-2,2.0402318E-1,-1.4111705E-2,-1.5232295E-3,3.9266977E-2,-6.058154E-2,-2.0391689E-1,2.580323E-2,-1.9148356E-1,-6.960154E-2,3.9848816E-3,1.2991552E-1,-1.5323223E-1,1.7617678E-2,8.5616475E-3,-1.6868508E-1,1.2982984E-2,-2.1771245E-2,1.1255651E-3,-2.4635734E-3,-2.000615E-3,2.1260649E-3,2.0486563E-3,2.0743268E-2,-1.4598906E-3,-3.0507596E-4,2.1019012E-2,-3.3895712E-2,-2.0231727E-1,4.9889297E-3,9.381488E-2,2.1510752E-1,1.4299691E-2,-2.0346954E-2,-2.5552512E-5,1.2575E-3,1.3563564E-1,3.240315E-2,-2.8701127E-1,2.9312422E-2,-6.335257E-3,-3.6459747E-1,-1.3429897E-2,8.892873E-3,2.4190012E-2,7.846872E-3,-1.9856328E-3,2.3242176E-2,5.105497E-2,-1.7812379E-1,9.93968E-3,-7.735334E-2,2.870698E-1,1.0952062E-1,-8.7772105E-3,-2.1785465E-1,2.5711834E-1,1.7297741E-2,7.535465E-2,-1.8175855E-1,-1.2300289E-2,1.3111594E-2,1.0776352E-1,-7.442551E-2,2.1617295E-1,7.931658E-3,6.240761E-2,-5.2607134E-3,-1.1731032E-2,8.263553E-3,-2.923303E-2,-2.239253E-1,-7.8059095E-3,8.64437E-3,-4.348797E-3,-2.0193432E-2,-1.3163622E-1,5.635953E-2,9.527463E-3,-1.9335665E-2,1.4475854E-2,1.3007224E-3,-8.7292E-2,-2.4680465E-2,1.313034E-1,-8.234404E-2,-1.21810175E-1,-2.2869788E-1,-3.965232E-3,1.5935987E-3,7.679597E-4,-5.8523165E-3,-2.4496112E-2,-1.0909408E-1,1.3532041E-1,1.8479243E-2,1.1383725E-1,2.4802648E-2,2.3409724E-4,1.6182639E-2,-3.3982508E-2,-1.0963085E-2,6.8021193E-3,-1.8690515E-2,-1.2298053E-2,-3.9230928E-2,7.800285E-3,-3.5982751E-3,-5.2750795E-3,2.0009382E-2,-1.3378209E-2,-3.30629E-2,-9.275226E-4,5.5302605E-3,-2.4464807E-2,2.523317E-3,3.0439124E-2,1.2952241E-2,2.4070429E-2,6.122937E-3,-1.0542999E-2,6.088744E-3,-1.395859E-2,-2.5813362E-2,2.8161881E-2,1.7291507E-2,-1.79191E-2,1.2710593E-2,2.0203467E-2,3.1384402E-3,-5.5204454E-4,-2.3556102E-2,1.195449E-2,1.8537611E-3,3.8084954E-3,-1.045446E-2,1.0357088E-2,2.3746707E-2,7.411798E-3,1.9278676E-4,-1.269721E-3,8.524388E-4,-3.9592367E-3,5.336495E-3,-3.7597015E-3,-6.252527E-4,-2.392541E-2,3.0032994E-4,-6.33723E-3,-1.669911E-2,7.282088E-3,3.487736E-4,1.4110268E-4,-4.0435116E-3,-4.9479622E-3,-1.3381942E-2,1.9112676E-2,7.7711145E-4,-1.5280324E-2,6.253598E-3,-2.5393793E-3,-1.4274004E-2,-2.5979063E-2,-5.216345E-3,-1.2420829E-2,-3.187573E-3,-1.1170954E-4,1.6970906E-2,2.4263083E-3,8.4636017E-4,3.8174824E-3,1.6104037E-2],"categories":[],"categories_nodes":[],"categories_segments":[],"categories_sizes":[],"default_left":[0,0,0,0,0,0,0,0,0,0,0,0,0,0,0,0,0,0,0,0,0,0,0,0,0,0,0,0,0,0,0,0,0,0,0,0,0,0,0,0,0,0,0,0,0,0,0,0,0,0,0,0,0,0,0,0,0,0,0,0,0,0,0,0,0,0,0,0,0,0,0,0,0,0,0,0,0,0,0,0,0,0,0,0,0,0,0,0,0,0,0,0,0,0,0,0,0,0,0,0,0,0,0,0,0,0,0,0,0,0,0,0,0,0,0,0,0,0,0,0,0,0,0,0,0,0,0,0,0,0,0,0,0,0,0,0,0,0,0,0,0,0,0,0,0,0,0,0,0,0,0,0,0,0,0,0,0,0,0,0,0,0,0,0,0,0,0,0,0,0,0,0,0,0,0,0,0,0,0,0,0,0,0,0,0,0,0,0,0,0,0,0,0,0,0,0,0,0,0,0,0,0,0,0,0,0,0,0,0,0,0,0,0,0,0,0,0,0,0,0,0,0,0,0,0,0,0,0,0,0,0,0,0,0,0,0,0,0,0,0,0,0,0,0,0,0,0,0,0,0,0,0,0,0,0,0,0,0,0,0,0,0,0,0,0,0,0,0,0,0,0,0,0,0,0,0,0,0,0,0,0,0,0,0,0,0,0,0,0,0,0,0,0,0,0,0,0,0,0,0,0,0,0,0,0,0,0,0,0,0,0,0,0,0,0,0,0,0,0,0,0,0,0,0,0,0,0,0,0,0,0],"id":1,"left_children":[1,3,5,7,9,11,13,15,17,19,21,-1,-1,23,25,27,29,31,33,35,37,39,41,43,45,47,49,51,53,55,-1,57,59,61,63,-1,65,67,69,71,73,75,77,-1,-1,79,81,83,85,-1,87,89,-1,91,-1,-1,-1,93,95,97,99,-1,101,103,105,107,109,-1,-1,111,113,115,117,119,121,123,125,-1,127,129,-1,-1,-1,131,133,135,-1,-1,-1,137,-1,-1,139,141,143,145,-1,147,149,151,153,155,-1,157,-1,-1,159,161,-1,-1,-1,163,165,167,-1,-1,-1,-1,-1,-1,-1,169,171,173,175,177,-1,-1,179,181,183,185,187,-1,189,191,-1,-1,-1,-1,193,195,197,199,201,203,205,207,209,-1,211,-1,213,215,217,-1,-1,219,-1,221,223,-1,-1,225,227,229,231,233,235,237,239,241,243,-1,245,-1,247,-1,-1,-1,-1,-1,-1,-1,-1,-1,249,251,-1,253,255,-1,-1,-1,-1,257,-1,259,261,-1,263,-1,-1,-1,-1,265,-1,267,269,271,273,275,277,279,281,283,285,287,289,-1,-1,291,293,295,-1,297,299,-1,301,303,305,-1,-1,-1,-1,307,309,-1,311,-1,-1,313,-1,315,317,319,321,-1,-1,-1,-1,-1,323,325,327,329,-1,-1,-1,-1,-1,-1,-1,-1,-1,-1,-1,-1,-1,-1,-1,-1,-1,-1,-1,-1,-1,-1,-1,-1,-1,-1,-1,-1,-1,-1,-1,-1,-1,-1,-1,-1,-1,-1,-1,-1,-1,-1,-1,-1,-1,-1,-1,-1,-1,-1,-1,-1,-1,-1,-1,-1,-1,-1,-1,-1,-1,-1,-1,-1,-1,-1,-1,-1,-1,-1,-1,-1,-1,-1,-1],"loss_changes":[4.267403E0,2.4489205E0,4.8042917E0,2.386627E0,3.3148444E0,3.8583994E-2,1.4210234E0,2.0029037E0,1.3664206E0,7.6514816E-1,1.4807729E0,0E0,0E0,2.5828552E-1,4.5791107E-1,2.2751713E-1,1.2102443E-1,1.431683E0,2.135108E0,1.4740801E-1,5.9051466E-1,7.168148E-1,2.8169858E-1,1.202631E-2,1.372484E-1,3.679253E-1,1.8270016E-3,5.0680637E-3,5.8419096E-1,2.7023159E-2,0E0,3.8659992E0,1.7237977E0,1.12038136E-1,6.567571E-1,0E0,4.721403E-2,5.5082217E-3,2.564764E-1,9.935737E-3,1.7588091E-1,1.03325434E-1,1.1859286E-1,0E0,0E0,8.321035E-2,2.8554082E-2,4.6484607E-1,3.8982844E-1,0E0,1.2658417E-2,5.9777707E-2,0E0,5.1439717E-2,0E0,0E0,0E0,1.3885562E0,4.7997332E-1,1.9514034E0,3.536707E0,0E0,4.0989704E-2,3.725624E-1,5.356755E-1,2.2667766E-2,3.1239271E-2,0E0,0E0,2.2622508E-1,1.9545114E-1,1.4457703E-3,3.453598E-2,5.630702E-3,1.6672719E-1,1.568676E-1,2.27077E-2,0E0,2.7411744E-2,5.2340284E-2,0E0,0E0,0E0,2.208836E-1,1.8979663E-1,5.6599397E-2,0E0,0E0,0E0,6.9415756E-2,0E0,0E0,8.619124E-4,1.1242683E0,1.63311E-1,1.0698959E-1,0E0,1.1492882E0,3.0537367E0,6.1299086E-1,9.046166E-1,2.2369686E-3,0E0,1.259146E-1,0E0,0E0,2.012966E-1,9.3311295E-3,0E0,0E0,0E0,4.474351E-2,1.4516169E-1,5.911529E-2,0E0,0E0,0E0,0E0,0E0,0E0,0E0,6.2915415E-2,1.6322881E-1,9.3180954E-2,3.7221894E-2,1.2285159E-3,0E0,0E0,1.702424E-3,2.132763E-2,2.952278E-5,8.004293E-2,7.487629E-2,0E0,5.1053464E-2,1.1882002E-1,0E0,0E0,0E0,0E0,1.1403258E-4,5.794692E-2,6.746577E-1,4.5028567E-2,4.914445E-2,1.54438615E-2,1.2013355E-1,2.3683956E0,1.4411048E0,0E0,5.219958E-1,0E0,7.428796E-1,3.7011254E-1,6.5684605E-1,0E0,0E0,8.434188E-2,0E0,1.0663114E-1,7.09641E-3,0E0,0E0,9.601898E-3,3.611888E-2,5.6366622E-2,3.194076E-2,8.23161E-3,8.5558504E-2,2.1002539E-2,1.1999264E-2,4.632798E-2,1.471827E-1,0E0,1.1525601E-2,0E0,3.3288817E-3,0E0,0E0,0E0,0E0,0E0,0E0,0E0,0E0,0E0,3.521116E-3,1.1039674E-3,0E0,2.2514142E-2,4.177332E-2,0E0,0E0,0E0,0E0,2.0567685E-2,0E0,6.579417E-2,1.6336478E-1,0E0,5.2188396E-2,0E0,0E0,0E0,0E0,2.7281156E-2,0E0,1.170887E0,7.266748E-1,1.0107486E0,3.884826E0,7.791901E-2,1.8164754E-1,1.6128485E-1,2.0356464E-1,8.163452E-4,2.3853695E-1,1.2734292E-1,1.5989429E-1,0E0,0E0,5.1423535E-3,2.4313845E-2,8.974016E-3,0E0,4.1065533E-3,5.1828736E-4,0E0,1.290469E-2,3.4154952E-4,5.6375265E-2,0E0,0E0,0E0,0E0,6.3116327E-3,3.2273838E-3,0E0,3.559005E-3,0E0,0E0,7.453162E-3,0E0,4.285544E-2,8.101262E-2,1.65551E-2,1.3893127E-2,0E0,0E0,0E0,0E0,0E0,7.0914254E-4,2.3649089E-2,2.6362482E-5,1.885283E-2,0E0,0E0,0E0,0E0,0E0,0E0,0E0,0E0,0E0,0E0,0E0,0E0,0E0,0E0,0E0,0E0,0E0,0E0,0E0,0E0,0E0,0E0,0E0,0E0,0E0,0E0,0E0,0E0,0E0,0E0,0E0,0E0,0E0,0E0,0E0,0E0,0E0,0E0,0E0,0E0,0E0,0E0,0E0,0E0,0E0,0E0,0E0,0E0,0E0,0E0,0E0,0E0,0E0,0E0,0E0,0E0,0E0,0E0,0E0,0E0,0E0,0E0,0E0,0E0,0E0,0E0,0E0,0E0,0E0,0E0,0E0,0E0,0E0,0E0,0E0],"parents":[2147483647,0,0,1,1,2,2,3,3,4,4,5,5,6,6,7,7,8,8,9,9,10,10,13,13,14,14,15,15,16,16,17,17,18,18,19,19,20,20,21,21,22,22,23,23,24,24,25,25,26,26,27,27,28,28,29,29,31,31,32,32,33,33,34,34,36,36,37,37,38,38,39,39,40,40,41,41,42,42,45,45,46,46,47,47,48,48,50,50,51,51,53,53,57,57,58,58,59,59,60,60,62,62,63,63,64,64,65,65,66,66,69,69,70,70,71,71,72,72,73,73,74,74,75,75,76,76,78,78,79,79,83,83,84,84,85,85,89,89,92,92,93,93,94,94,95,95,97,97,98,98,99,99,100,100,101,101,103,103,106,106,107,107,111,111,112,112,113,113,121,121,122,122,123,123,124,124,125,125,128,128,129,129,130,130,131,131,132,132,134,134,135,135,140,140,141,141,142,142,143,143,144,144,145,145,146,146,147,147,148,148,150,150,152,152,153,153,154,154,157,157,159,159,160,160,163,163,164,164,165,165,166,166,167,167,168,168,169,169,170,170,171,171,172,172,174,174,176,176,186,186,187,187,189,189,190,190,195,195,197,197,198,198,200,200,205,205,207,207,208,208,209,209,210,210,211,211,212,212,213,213,214,214,215,215,216,216,217,217,218,218,221,221,222,222,223,223,225,225,226,226,228,228,229,229,230,230,235,235,236,236,238,238,241,241,243,243,244,244,245,245,246,246,252,252,253,253,254,254,255,255],"right_children":[2,4,6,8,10,12,14,16,18,20,22,-1,-1,24,26,28,30,32,34,36,38,40,42,44,46,48,50,52,54,56,-1,58,60,62,64,-1,66,68,70,72,74,76,78,-1,-1,80,82,84,86,-1,88,90,-1,92,-1,-1,-1,94,96,98,100,-1,102,104,106,108,110,-1,-1,112,114,116,118,120,122,124,126,-1,128,130,-1,-1,-1,132,134,136,-1,-1,-1,138,-1,-1,140,142,144,146,-1,148,150,152,154,156,-1,158,-1,-1,160,162,-1,-1,-1,164,166,168,-1,-1,-1,-1,-1,-1,-1,170,172,174,176,178,-1,-1,180,182,184,186,188,-1,190,192,-1,-1,-1,-1,194,196,198,200,202,204,206,208,210,-1,212,-1,214,216,218,-1,-1,220,-1,222,224,-1,-1,226,228,230,232,234,236,238,240,242,244,-1,246,-1,248,-1,-1,-1,-1,-1,-1,-1,-1,-1,250,252,-1,254,256,-1,-1,-1,-1,258,-1,260,262,-1,264,-1,-1,-1,-1,266,-1,268,270,272,274,276,278,280,282,284,286,288,290,-1,-1,292,294,296,-1,298,300,-1,302,304,306,-1,-1,-1,-1,308,310,-1,312,-1,-1,314,-1,316,318,320,322,-1,-1,-1,-1,-1,324,326,328,330,-1,-1,-1,-1,-1,-1,-1,-1,-1,-1,-1,-1,-1,-1,-1,-1,-1,-1,-1,-1,-1,-1,-1,-1,-1,-1,-1,-1,-1,-1,-1,-1,-1,-1,-1,-1,-1,-1,-1,-1,-1,-1,-1,-1,-1,-1,-1,-1,-1,-1,-1,-1,-1,-1,-1,-1,-1,-1,-1,-1,-1,-1,-1,-1,-1,-1,-1,-1,-1,-1,-1,-1,-1,-1,-1],"split_conditions":[2.19E2,2.25E2,2.08E2,2.5E1,1.87E2,1.2E1,2.05E2,2.6E1,2.21E2,1.36E2,1.84E2,-7.3814765E-3,-3.773685E-2,2.12E2,2.46E2,2.08E2,4E1,3.8E1,2.05E2,2.3E1,1.1E1,1.67E2,1.55E2,1.97E2,1.41E2,2.2E2,1.49E2,3.9E1,1.92E2,1.9E1,-3.5591107E-2,4.5E1,2.19E2,1.94E2,2.15E2,-9.928911E-3,1.02E2,1.57E2,1.32E2,1.39E2,4.3E1,1.45E2,2.07E2,3.525219E-2,1.3815339E-2,1.38E2,2.2E2,6.7E1,1.32E2,3.052551E-2,1.28E2,9.6E1,3.5951126E-2,2.44E2,3.1416744E-2,-1.2128425E-2,3.9631664E-3,4E1,3.7E1,2.13E2,1.81E2,-3.5938557E-2,2.24E2,5E1,5.7E1,4E0,2.27E2,1.7548606E-3,1.1810105E-2,1.49E2,1.19E2,9E0,1.49E2,3.7E1,1.8E2,2.13E2,2.04E2,-3.1013412E-2,1.47E2,1.19E2,-1.1874142E-2,3.8733275E-3,2.5948942E-2,9.6E1,3.8E1,7.5E1,-2.5221977E-2,1.770433E-2,2.1280467E-3,1.4E1,2.7397973E-2,-1.894718E-2,1.2E1,8.8E1,2.54E2,1.27E2,3.4894753E-2,3.4E1,1.89E2,9E1,9.1E1,1.49E2,-1.8181846E-2,8.5E1,3.2385353E-2,-1.9967115E-2,1.48E2,1.55E2,-2.5925813E-2,-3.5054237E-2,-1.2144673E-2,1.31E2,1.81E2,1.46E2,-2.9642228E-2,6.508374E-3,2.3158265E-2,-2.5176778E-3,1.5692515E-2,5.494134E-3,1.632234E-2,2.04E2,2.06E2,2.1E1,2.35E2,1.02E2,1.2454215E-2,-1.4213167E-2,1.81E2,1E2,1.6E2,2.32E2,1.88E2,-1.5366665E-2,2.32E2,2.3E1,1.428157E-2,1.654019E-2,-1.0070169E-2,-1.871425E-3,2.45E2,1.27E2,1.32E2,1E0,3.5E1,3.3E1,1.87E2,7.1E1,2.17E2,-3.5145756E-2,2.02E2,-3.5256445E-2,3.7E1,1.88E2,1.47E2,2.0508498E-3,-2.6933344E-3,1.59E2,1.7399492E-2,2.23E2,2.38E2,-1.4111705E-2,-1.5232295E-3,7.8E1,9.4E1,6.1E1,9.6E1,2.32E2,1.72E2,2.1E1,1.67E2,1.65E2,2.11E2,8.5616475E-3,1.17E2,1.2982984E-2,5.6E1,1.1255651E-3,-2.4635734E-3,-2.000615E-3,2.1260649E-3,2.0486563E-3,2.0743268E-2,-1.4598906E-3,-3.0507596E-4,2.1019012E-2,6.2E1,1.82E2,4.9889297E-3,2.29E2,2.28E2,1.4299691E-2,-2.0346954E-2,-2.5552512E-5,1.2575E-3,2.4E1,3.240315E-2,1.21E2,2.05E2,-6.335257E-3,1E0,-1.3429897E-2,8.892873E-3,2.4190012E-2,7.846872E-3,1.41E2,2.3242176E-2,1.1E2,1.47E2,1.78E2,1.55E2,2.31E2,6.1E1,1.21E2,1.16E2,1.71E2,7.3E1,8.2E1,1.25E2,-1.2300289E-2,1.3111594E-2,1.74E2,2.33E2,2.28E2,7.931658E-3,1.87E2,1.08E2,-1.1731032E-2,1.53E2,1.17E2,1.95E2,-7.8059095E-3,8.64437E-3,-4.348797E-3,-2.0193432E-2,1.67E2,1.96E2,9.527463E-3,1.36E2,1.4475854E-2,1.3007224E-3,1.49E2,-2.4680465E-2,1.47E2,1.31E2,8.9E1,1.43E2,-3.965232E-3,1.5935987E-3,7.679597E-4,-5.8523165E-3,-2.4496112E-2,5.8E1,7.7E1,9.8E1,1.32E2,2.4802648E-2,2.3409724E-4,1.6182639E-2,-3.3982508E-2,-1.0963085E-2,6.8021193E-3,-1.8690515E-2,-1.2298053E-2,-3.9230928E-2,7.800285E-3,-3.5982751E-3,-5.2750795E-3,2.0009382E-2,-1.3378209E-2,-3.30629E-2,-9.275226E-4,5.5302605E-3,-2.4464807E-2,2.523317E-3,3.0439124E-2,1.2952241E-2,2.4070429E-2,6.122937E-3,-1.0542999E-2,6.088744E-3,-1.395859E-2,-2.5813362E-2,2.8161881E-2,1.7291507E-2,-1.79191E-2,1.2710593E-2,2.0203467E-2,3.1384402E-3,-5.5204454E-4,-2.3556102E-2,1.195449E-2,1.8537611E-3,3.8084954E-3,-1.045446E-2,1.0357088E-2,2.3746707E-2,7.411798E-3,1.9278676E-4,-1.269721E-3,8.524388E-4,-3.9592367E-3,5.336495E-3,-3.7597015E-3,-6.252527E-4,-2.392541E-2,3.0032994E-4,-6.33723E-3,-1.669911E-2,7.282088E-3,3.487736E-4,1.4110268E-4,-4.0435116E-3,-4.9479622E-3,-1.3381942E-2,1.9112676E-2,7.7711145E-4,-1.5280324E-2,6.253598E-3,-2.5393793E-3,-1.4274004E-2,-2.5979063E-2,-5.216345E-3,-1.2420829E-2,-3.187573E-3,-1.1170954E-4,1.6970906E-2,2.4263083E-3,8.4636017E-4,3.8174824E-3,1.6104037E-2],"split_indices":[10,1,1,10,10,2,4,1,11,10,4,0,0,7,10,0,1,9,2,2,7,7,0,4,2,7,2,7,9,10,0,3,2,2,8,0,9,10,7,7,4,11,10,0,0,11,10,11,11,0,9,9,0,0,0,0,0,0,6,9,11,0,11,3,10,7,0,0,0,5,4,0,9,0,7,10,10,0,9,2,0,0,0,0,9,9,0,0,0,0,0,0,10,11,7,10,0,0,0,11,8,0,0,9,0,0,9,11,0,0,0,9,10,3,0,0,0,0,0,0,0,10,10,2,1,9,0,0,0,9,9,10,9,0,1,0,0,0,0,0,0,10,11,1,9,9,10,9,0,0,6,0,5,5,5,0,0,10,0,5,11,0,0,0,11,11,0,1,10,2,0,0,10,0,8,0,2,0,0,0,0,0,0,0,0,0,9,0,0,10,10,0,0,0,0,0,0,10,11,0,3,0,0,0,0,10,0,6,9,4,9,3,10,11,5,10,10,10,9,0,0,0,11,11,0,11,0,0,10,9,11,0,0,0,0,7,3,0,9,0,0,2,0,4,0,11,11,0,0,0,0,0,11,11,11,9,0,0,0,0,0,0,0,0,0,0,0,0,0,0,0,0,0,0,0,0,0,0,0,0,0,0,0,0,0,0,0,0,0,0,0,0,0,0,0,0,0,0,0,0,0,0,0,0,0,0,0,0,0,0,0,0,0,0,0,0,0,0,0,0,0,0,0,0,0,0,0,0,0,0,0],"split_type":[0,0,0,0,0,0,0,0,0,0,0,0,0,0,0,0,0,0,0,0,0,0,0,0,0,0,0,0,0,0,0,0,0,0,0,0,0,0,0,0,0,0,0,0,0,0,0,0,0,0,0,0,0,0,0,0,0,0,0,0,0,0,0,0,0,0,0,0,0,0,0,0,0,0,0,0,0,0,0,0,0,0,0,0,0,0,0,0,0,0,0,0,0,0,0,0,0,0,0,0,0,0,0,0,0,0,0,0,0,0,0,0,0,0,0,0,0,0,0,0,0,0,0,0,0,0,0,0,0,0,0,0,0,0,0,0,0,0,0,0,0,0,0,0,0,0,0,0,0,0,0,0,0,0,0,0,0,0,0,0,0,0,0,0,0,0,0,0,0,0,0,0,0,0,0,0,0,0,0,0,0,0,0,0,0,0,0,0,0,0,0,0,0,0,0,0,0,0,0,0,0,0,0,0,0,0,0,0,0,0,0,0,0,0,0,0,0,0,0,0,0,0,0,0,0,0,0,0,0,0,0,0,0,0,0,0,0,0,0,0,0,0,0,0,0,0,0,0,0,0,0,0,0,0,0,0,0,0,0,0,0,0,0,0,0,0,0,0,0,0,0,0,0,0,0,0,0,0,0,0,0,0,0,0,0,0,0,0,0,0,0,0,0,0,0,0,0,0,0,0,0,0,0,0,0,0,0,0,0,0,0,0,0,0,0,0,0,0,0,0,0,0,0,0,0,0,0,0,0,0,0],"sum_hessian":[2.5E3,2.343E3,1.57E2,2.088E3,2.55E2,1.5E1,1.42E2,5.1E1,2.037E3,1.42E2,1.13E2,1E0,1.4E1,8E1,6.2E1,4.4E1,7E0,1.956E3,8.1E1,6E1,8.2E1,7.6E1,3.7E1,5.3E1,2.7E1,5.1E1,1.1E1,3.1E1,1.3E1,3E0,4E0,1.12E2,1.844E3,1.1E1,7E1,5E0,5.5E1,8E0,7.4E1,3.2E1,4.4E1,2.3E1,1.4E1,5.1E1,2E0,7E0,2E1,3.9E1,1.2E1,8E0,3E0,6E0,2.5E1,5E0,8E0,2E0,1E0,5.6E1,5.6E1,1.652E3,1.92E2,6E0,5E0,3.9E1,3.1E1,2.2E1,3.3E1,1E0,7E0,3.6E1,3.8E1,2.7E1,5E0,8E0,3.6E1,1.9E1,4E0,9E0,5E0,6E0,1E0,1E0,1.9E1,1.1E1,2.8E1,6E0,6E0,2E0,1E0,2E0,4E0,2E0,3E0,3.9E1,1.7E1,1.9E1,3.7E1,1.57E3,8.2E1,1.21E2,7.1E1,2E0,3E0,9E0,3E1,5E0,2.6E1,4E0,1.8E1,3.1E1,2E0,1.6E1,2E1,1.9E1,1.9E1,1E0,2.6E1,1E0,4E0,2E0,6E0,1.5E1,2.1E1,1.4E1,5E0,2E0,2E0,3E0,2E0,4E0,2E0,4E0,7E0,1E0,2.7E1,2E0,4E0,1E0,1E0,1E0,2E0,1.2E1,2.7E1,1.5E1,2E0,9E0,1E1,1.87E2,1.383E3,1E1,7.2E1,2.4E1,9.7E1,3.2E1,3.9E1,1E0,1E0,4E0,5E0,1.1E1,1.5E1,3E0,1E0,8E0,8E0,1.7E1,3E0,1E1,9E0,8E0,7E0,1E1,1.1E1,1E0,1.3E1,2E0,3E0,1E0,1E0,1E0,1E0,1E0,3E0,1E0,1E0,2E0,2E0,6E0,1E0,7E0,2E1,1E0,1E0,1E0,1E0,5E0,7E0,1E1,1.7E1,1E0,1.4E1,1E0,1E0,7E0,2E0,8E0,2E0,7.4E1,1.13E2,1.158E3,2.25E2,4.2E1,3E1,2.2E1,7.5E1,2.3E1,9E0,2.3E1,1.6E1,3E0,1E0,6E0,5E0,1.3E1,2E0,5E0,3E0,4E0,4E0,2E0,1.5E1,1E0,2E0,1E0,9E0,6E0,3E0,1E0,7E0,6E0,1E0,7E0,3E0,5E0,6E0,9E0,4E0,2E0,1E0,1E0,1E0,3E0,3E0,4E0,3E0,6E0,1.4E1,1E0,4E0,7E0,3E0,1.5E1,2E0,2E0,1.2E1,2E0,6E0,4.4E1,3E1,8.9E1,2.4E1,8.14E2,3.44E2,8.5E1,1.4E2,3.7E1,5E0,7E0,2.3E1,9E0,1.3E1,2.7E1,4.8E1,1.6E1,7E0,3E0,6E0,5E0,1.8E1,4E0,1.2E1,5E0,1E0,1E0,4E0,3E0,1E1,4E0,1E0,2E0,1E0,2E0,2E0,1E0,1E0,1.4E1,1E0,3E0,3E0,2E0,1E0,4E0,3E0,5E0,2E0,3E0,2E0,4E0,2E0,2E0,7E0,3E0,1E0,2E0,1E0,1E0,3E0,1E0,2E0,3E0,3E0],"tree_param":{"num_deleted":"0","num_feature":"12","num_nodes":"331","size_leaf_vector":"1"}},{"base_weights":[-7.162153E-5,-9.768517E-3,1.4378656E-1,-1.4989412E-3,-1.1418723E-1,-3.2952872E-1,1.9573942E-1,1.9161089E-1,-6.230427E-3,-1.9004944E-1,-1.3538133E-2,-7.012403E-3,-3.4214746E-2,2.7454E-1,9.131743E-2,2.636723E-1,-2.3768583E-1,-1.0959075E-2,1.0721917E-1,-2.4045476E-1,-1.2272346E-1,1.1640704E-1,-1.2413674E-1,3.133353E-1,1.899155E-1,-1.0504002E-1,1.2178834E-1,3.072422E-1,1.4525014E-1,-6.607394E-2,-3.274382E-2,-2.4711087E-3,-8.2545206E-2,-1.5415956E-1,1.8480031E-1,-9.101502E-3,-2.5357845E-1,-5.1248893E-2,-1.9856471E-1,-1.7619401E-2,1.3019513E-1,7.003836E-2,-1.6617392E-1,3.1794764E-2,1.2894317E-2,6.841029E-2,2.2715959E-1,7.8186825E-2,-2.6725886E-2,-1.3737136E-1,1.4480814E-1,3.303525E-2,2.1147686E-1,-9.0445176E-2,2.8624147E-2,-1.1319864E-2,3.765008E-3,-9.099065E-3,1.1304097E-1,-1.8810248E-1,7.31302E-2,-2.7766752E-1,2.7646534E-2,-1.823741E-2,1.9912411E-1,-5.939901E-4,-2.5851107E-1,-1.1759058E-1,-1.7014636E-2,-2.1494646E-1,6.453526E-3,1.8908998E-1,7.374708E-2,-2.1053933E-2,1.4019795E-1,-2.3242211E-1,-5.4932054E-2,1.1041301E-1,-1.1280435E-2,3.67966E-3,2.3483792E-1,1.625123E-2,-3.2200933E-2,5.1864297E-3,-1.9764636E-2,7.8003675E-2,2.2932296E-1,-9.566662E-3,2.6182814E-2,-1.7684033E-2,-3.0375123E-3,2.3317602E-3,-7.380919E-2,-3.090756E-1,1.9813664E-1,-2.661054E-1,-1.2063383E-1,1.5300761E-1,-7.867691E-2,-3.1976458E-2,-1.5477876E-1,-1.6039321E-2,1.0428549E-1,2.7259162E-1,1.171381E-1,-1.4953308E-1,-2.761279E-2,-1.6343435E-2,1.3293833E-2,3.0091494E-2,-5.2998073E-2,-2.2383757E-2,-2.3007721E-3,4.6736985E-3,1.954644E-2,1.8360842E-2,5.0021723E-2,4.210484E-3,1.49529325E-2,-1.0755824E-1,-2.7519712E-1,-1.2507674E-2,-2.4431074E-2,1.6128507E-1,-1.1178116E-2,1.9299307E-1,3.2177385E-2,7.2956085E-4,-5.559701E-3,1.6315581E-1,-3.0967044E-2,4.7394843E-3,2.3572929E-1,-1.7778531E-3,7.8023374E-3,4.980065E-3,-2.3814762E-1,-2.1712846E-1,2.6903039E-2,-3.352157E-2,-7.5350027E-3,2.5650984E-1,8.6460344E-2,-3.244476E-2,-2.1030708E-1,1.1971521E-3,-1.9999348E-1,2.3189579E-1,3.158703E-2,1.1126792E-2,-2.2179334E-1,-1.8068014E-2,-2.558668E-3,1.453156E-2,1.6796805E-2,3.0728508E-2,1.2576397E-1,-1.431884E-1,1.4900596E-1,-1.8564677E-2,-1.5423436E-3,-1.8785313E-3,3.8726062E-3,-3.1585712E-2,5.591485E-2,-6.6883387E-3,3.5984844E-3,-8.287023E-3,6.350686E-2,-4.4286866E-3,-1.2400942E-2,-6.2195556E-3,-2.8596897E-2,4.551237E-3,-4.934154E-2,1.9462229E-3,1.9187523E-2,-1.3868958E-3,-2.8982162E-4,2.3416714E-1,5.557672E-2,-9.644665E-3,1.8540889E-1,6.6355646E-2,-1.377691E-1,6.195325E-3,2.4132043E-2,-2.4275481E-5,1.1946261E-3,1.5180819E-1,1.0334582E-3,1.808058E-2,-3.1091282E-2,-2.6761407E-1,-1.5190847E-1,8.7804265E-2,-4.8510112E-2,2.922003E-1,1.6164233E-1,1.1395868E-1,-1.9901088E-2,-1.150813E-1,-2.52689E-1,7.425755E-2,-9.443546E-2,-2.3804523E-1,-1.3391909E-1,1.646134E-1,2.68912E-1,-2.5692252E-2,6.9493465E-2,-1.657517E-2,5.209074E-2,-3.112306E-2,-8.048432E-2,3.710918E-3,-2.6600645E-3,1.9348359E-2,9.673446E-3,-1.6752288E-2,-3.5092488E-3,9.909114E-2,2.028172E-2,-9.111613E-4,-3.8266957E-3,7.890746E-3,6.6197515E-3,5.3711277E-3,9.785119E-2,-2.5903275E-2,2.6254312E-3,1.0411292E-4,-5.9626303E-3,2.4997832E-2,3.012207E-3,4.175976E-3,1.3058985E-2,2.7035436E-2,1.22219644E-1,1.2122259E-1,-6.549681E-3,-1.6264865E-1,5.754054E-4,-4.395634E-3,3.301941E-2,-6.040847E-3,9.47164E-4,-5.8509554E-3,-2.7777126E-2,1.2181753E-3,-2.0545615E-2,1.3924586E-2,-1.747285E-4,5.047381E-3,-1.21535305E-2,3.0220112E-2,1.3164306E-2,1.8581226E-2,-1.1253828E-2,2.3012878E-2,7.1815522E-3,-1.22496E-2,-1.6759798E-3,-2.9178286E-2,-1.2723315E-2,1.7735761E-3,1.12049235E-2,9.3992456E-4,-1.6050706E-2,-2.5585154E-2,-7.614754E-3,-1.9889027E-2,-4.6849E-3,1.8266207E-2,3.1531316E-3,2.7497364E-2,7.3839608E-3,1.9280571E-2,2.1883647E-3,1.3675163E-2,-6.0246694E-3,-1.5696278E-2,4.831507E-3,4.3164594E-3,-4.5399996E-3,1.8355079E-3,1.5377088E-2,1.8314719E-4,8.0981554E-4,-3.2260397E-3,6.6299955E-3,1.0597757E-2,1.2356878E-3,-3.2562658E-3,-6.292254E-4,8.7961555E-5,4.981558E-4,2.3319037E-3,1.563925E-2,7.443339E-4,1.4248977E-2,-7.3502595E-3,-1.8884603E-2],"categories":[],"categories_nodes":[],"categories_segments":[],"categories_sizes":[],"default_left":[0,0,0,0,0,0,0,0,0,0,0,0,0,0,0,0,0,0,0,0,0,0,0,0,0,0,0,0,0,0,0,0,0,0,0,0,0,0,0,0,0,0,0,0,0,0,0,0,0,0,0,0,0,0,0,0,0,0,0,0,0,0,0,0,0,0,0,0,0,0,0,0,0,0,0,0,0,0,0,0,0,0,0,0,0,0,0,0,0,0,0,0,0,0,0,0,0,0,0,0,0,0,0,0,0,0,0,0,0,0,0,0,0,0,0,0,0,0,0,0,0,0,0,0,0,0,0,0,0,0,0,0,0,0,0,0,0,0,0,0,0,0,0,0,0,0,0,0,0,0,0,0,0,0,0,0,0,0,0,0,0,0,0,0,0,0,0,0,0,0,0,0,0,0,0,0,0,0,0,0,0,0,0,0,0,0,0,0,0,0,0,0,0,0,0,0,0,0,0,0,0,0,0,0,0,0,0,0,0,0,0,0,0,0,0,0,0,0,0,0,0,0,0,0,0,0,0,0,0,0,0,0,0,0,0,0,0,0,0,0,0,0,0,0,0,0,0,0,0,0,0,0,0,0,0,0,0,0,0,0,0,0,0,0,0,0,0,0,0,0,0,0,0,0,0,0,0,0,0,0,0,0,0,0,0,0,0,0,0,0,0,0,0,0,0,0,0,0,0,0,0,0,0],"id":2,"left_children":[1,3,5,7,9,11,13,15,17,19,21,-1,-1,23,25,27,29,31,33,35,37,39,41,43,45,47,49,51,53,55,-1,57,59,61,63,-1,65,67,69,-1,71,73,75,-1,-1,77,79,81,-1,83,85,-1,87,89,-1,-1,-1,91,93,95,97,99,101,-1,103,-1,105,107,109,111,-1,113,115,-1,117,119,121,123,-1,-1,125,-1,127,-1,-1,129,131,-1,-1,-1,133,135,137,139,141,143,145,147,149,-1,151,-1,153,155,157,159,-1,-1,161,163,165,-1,-1,-1,-1,-1,167,-1,-1,169,171,-1,173,175,177,179,-1,-1,-1,181,183,-1,185,-1,187,189,191,193,195,-1,-1,197,199,-1,201,203,205,207,209,211,213,-1,-1,215,-1,-1,217,219,221,-1,-1,-1,-1,223,225,-1,-1,-1,227,-1,-1,-1,-1,229,231,-1,-1,-1,-1,233,235,-1,237,239,241,-1,-1,-1,-1,243,245,-1,-1,247,249,251,253,255,257,259,-1,261,263,265,267,269,271,273,275,-1,277,-1,279,-1,281,-1,-1,-1,283,-1,-1,285,-1,-1,-1,-1,287,289,291,293,-1,-1,-1,-1,-1,295,-1,-1,297,299,-1,301,-1,-1,-1,-1,-1,-1,-1,-1,-1,-1,-1,-1,-1,-1,-1,-1,-1,-1,-1,-1,-1,-1,-1,-1,-1,-1,-1,-1,-1,-1,-1,-1,-1,-1,-1,-1,-1,-1,-1,-1,-1,-1,-1,-1,-1,-1,-1,-1,-1,-1,-1,-1,-1,-1,-1,-1,-1,-1,-1,-1,-1],"loss_changes":[3.4902442E0,2.0238695E0,3.9497342E0,1.9866562E0,1.3107264E0,2.838099E-2,1.151607E0,1.6713287E0,1.13955E0,3.0306244E-1,1.092332E0,0E0,0E0,2.0641851E-1,3.8973355E-1,1.8755722E-1,1.0158545E-1,1.2381269E0,1.752124E0,8.478618E-2,2.2833544E-1,1.6414395E-1,3.4630406E-1,4.928589E-3,1.11169815E-1,2.8840172E-1,3.480118E-1,9.5915794E-4,4.9112308E-1,2.3813792E-2,0E0,1.3967339E0,3.5632136E0,4.567665E-1,3.8343096E-1,0E0,5.9540033E-2,5.2507043E-2,1.04382455E-1,0E0,9.908813E-2,1.8699887E-1,2.3779798E-1,0E0,0E0,7.334712E-2,2.2053719E-2,5.1775552E-2,0E0,6.728167E-2,2.7005625E-1,0E0,1.6423377E-1,4.4772446E-2,0E0,0E0,0E0,1.2761377E0,3.6173482E0,6.4679337E-1,1.0791227E0,1.2586236E-2,1.4642721E-1,0E0,3.5356092E-1,0E0,5.2782297E-2,5.017455E-2,3.041048E-2,2.898097E-2,0E0,5.383253E-3,4.0339082E-2,0E0,1.1150539E-4,8.256233E-2,2.6896983E-2,4.5102015E-2,0E0,0E0,1.0656238E-2,0E0,3.1778063E-3,0E0,0E0,2.8342515E-1,1.4468551E-2,0E0,0E0,0E0,7.778758E-4,9.354635E-1,3.744248E0,7.86047E-2,5.1889086E-1,1.2383509E-1,6.8670046E-1,5.4823685E-1,4.0089178E-1,0E0,1.2108237E-2,0E0,3.7569486E-2,1.2945509E-1,2.8680956E-1,4.0725425E-2,0E0,0E0,3.1750137E-3,1.4507811E-2,1.4762338E-2,0E0,0E0,0E0,0E0,0E0,3.572795E-2,0E0,0E0,1.7942265E-3,1.6630411E-2,0E0,8.166157E-3,1.7957598E-2,2.664447E-5,7.7513635E-2,0E0,0E0,0E0,1.1609024E-1,1.5466145E-1,0E0,5.4531097E-3,0E0,1.0291477E-4,8.412377E-1,5.4397833E-1,3.1166315E-1,7.069507E-1,0E0,0E0,1.356051E-1,2.581785E-1,0E0,1.0410321E-1,2.0963432E-1,7.6233625E-2,4.290223E-2,2.8032723E-1,1.5354694E-1,1.2661028E-1,0E0,0E0,4.7017965E-3,0E0,0E0,6.102121E-2,4.6430305E-3,5.7795882E-2,0E0,0E0,0E0,0E0,1.01790996E-4,6.2781908E-3,0E0,0E0,0E0,3.142055E-2,0E0,0E0,0E0,0E0,4.645812E-3,3.1711208E-3,0E0,0E0,0E0,0E0,3.1184375E-2,1.8733311E-2,0E0,5.2839637E-2,6.5814435E-2,2.5931418E-2,0E0,0E0,0E0,0E0,1.3415359E0,7.341904E-1,0E0,0E0,1.0905838E-1,4.3304884E-1,3.918106E-1,5.048884E-1,2.1234035E-2,1.3356873E-1,1.20554894E-1,0E0,6.6953003E-3,7.077587E-2,3.432563E-2,9.069548E-2,5.5470586E-2,9.250903E-2,3.0269772E-2,4.527688E-3,0E0,1.2493992E-1,0E0,1.6991879E-1,0E0,6.6685945E-2,0E0,0E0,0E0,9.337563E-3,0E0,0E0,7.222618E-2,0E0,0E0,0E0,0E0,6.405491E-6,1.8188775E-2,5.6380406E-3,1.8689944E-4,0E0,0E0,0E0,0E0,0E0,6.240094E-6,0E0,0E0,3.3529952E-2,1.3457984E-2,0E0,1.3168156E-4,0E0,0E0,0E0,0E0,0E0,0E0,0E0,0E0,0E0,0E0,0E0,0E0,0E0,0E0,0E0,0E0,0E0,0E0,0E0,0E0,0E0,0E0,0E0,0E0,0E0,0E0,0E0,0E0,0E0,0E0,0E0,0E0,0E0,0E0,0E0,0E0,0E0,0E0,0E0,0E0,0E0,0E0,0E0,0E0,0E0,0E0,0E0,0E0,0E0,0E0,0E0,0E0,0E0,0E0,0E0,0E0,0E0,0E0,0E0,0E0,0E0],"parents":[2147483647,0,0,1,1,2,2,3,3,4,4,5,5,6,6,7,7,8,8,9,9,10,10,13,13,14,14,15,15,16,16,17,17,18,18,19,19,20,20,21,21,22,22,23,23,24,24,25,25,26,26,27,27,28,28,29,29,31,31,32,32,33,33,34,34,36,36,37,37,38,38,40,40,41,41,42,42,45,45,46,46,47,47,49,49,50,50,52,52,53,53,57,57,58,58,59,59,60,60,61,61,62,62,64,64,66,66,67,67,68,68,69,69,71,71,72,72,74,74,75,75,76,76,77,77,80,80,82,82,85,85,86,86,90,90,91,91,92,92,93,93,94,94,95,95,96,96,97,97,98,98,100,100,102,102,103,103,104,104,105,105,108,108,109,109,110,110,116,116,119,119,120,120,122,122,123,123,124,124,125,125,129,129,130,130,132,132,134,134,135,135,136,136,137,137,138,138,141,141,142,142,144,144,145,145,146,146,147,147,148,148,149,149,150,150,153,153,156,156,157,157,158,158,163,163,164,164,168,168,173,173,174,174,179,179,180,180,182,182,183,183,184,184,189,189,190,190,193,193,194,194,195,195,196,196,197,197,198,198,199,199,201,201,202,202,203,203,204,204,205,205,206,206,207,207,208,208,210,210,212,212,214,214,218,218,221,221,226,226,227,227,228,228,229,229,235,235,238,238,239,239,241,241],"right_children":[2,4,6,8,10,12,14,16,18,20,22,-1,-1,24,26,28,30,32,34,36,38,40,42,44,46,48,50,52,54,56,-1,58,60,62,64,-1,66,68,70,-1,72,74,76,-1,-1,78,80,82,-1,84,86,-1,88,90,-1,-1,-1,92,94,96,98,100,102,-1,104,-1,106,108,110,112,-1,114,116,-1,118,120,122,124,-1,-1,126,-1,128,-1,-1,130,132,-1,-1,-1,134,136,138,140,142,144,146,148,150,-1,152,-1,154,156,158,160,-1,-1,162,164,166,-1,-1,-1,-1,-1,168,-1,-1,170,172,-1,174,176,178,180,-1,-1,-1,182,184,-1,186,-1,188,190,192,194,196,-1,-1,198,200,-1,202,204,206,208,210,212,214,-1,-1,216,-1,-1,218,220,222,-1,-1,-1,-1,224,226,-1,-1,-1,228,-1,-1,-1,-1,230,232,-1,-1,-1,-1,234,236,-1,238,240,242,-1,-1,-1,-1,244,246,-1,-1,248,250,252,254,256,258,260,-1,262,264,266,268,270,272,274,276,-1,278,-1,280,-1,282,-1,-1,-1,284,-1,-1,286,-1,-1,-1,-1,288,290,292,294,-1,-1,-1,-1,-1,296,-1,-1,298,300,-1,302,-1,-1,-1,-1,-1,-1,-1,-1,-1,-1,-1,-1,-1,-1,-1,-1,-1,-1,-1,-1,-1,-1,-1,-1,-1,-1,-1,-1,-1,-1,-1,-1,-1,-1,-1,-1,-1,-1,-1,-1,-1,-1,-1,-1,-1,-1,-1,-1,-1,-1,-1,-1,-1,-1,-1,-1,-1,-1,-1,-1,-1],"split_conditions":[2.19E2,2.35E2,2.08E2,2.5E1,1.85E2,1.2E1,2.05E2,2.6E1,2.21E2,1.49E2,1.4E2,-7.012403E-3,-3.4214746E-2,2.12E2,7.5E1,2.08E2,4E1,2.19E2,2.28E2,2.3E1,1.43E2,3.3E1,5.8E1,1.97E2,1.41E2,2.3E1,3.1E1,1.65E2,1.92E2,1.9E1,-3.274382E-2,2.11E2,1.81E2,2.48E2,6.7E1,-9.101502E-3,3.6E1,4.6E1,2.04E2,-1.7619401E-2,1.43E2,2.5E1,2.07E2,3.1794764E-2,1.2894317E-2,1.38E2,2.2E2,5.8E1,-2.6725886E-2,8.8E1,2.38E2,3.303525E-2,9.6E1,2.44E2,2.8624147E-2,-1.1319864E-2,3.765008E-3,2.13E2,2.1E2,1.3E2,1.75E2,1.57E2,9.3E1,-1.823741E-2,1.98E2,-5.939901E-4,2.1E1,2.08E2,1.31E2,2.25E2,6.453526E-3,1.86E2,1.06E2,-2.1053933E-2,1.9E2,1.2E2,1.52E2,1.19E2,-1.1280435E-2,3.67966E-3,2.14E2,1.625123E-2,6.2E1,5.1864297E-3,-1.9764636E-2,7.9E1,6.3E1,-9.566662E-3,2.6182814E-2,-1.7684033E-2,1.2E1,2.15E2,1.55E2,1.89E2,2.19E2,9E1,8.9E1,1.64E2,1.41E2,-3.1976458E-2,9.1E1,-1.6039321E-2,1.45E2,2.12E2,5.3E1,1.09E2,-2.761279E-2,-1.6343435E-2,2.21E2,1.17E2,2.44E2,-2.2383757E-2,-2.3007721E-3,4.6736985E-3,1.954644E-2,1.8360842E-2,2.38E2,4.210484E-3,1.49529325E-2,8E1,5.7E1,-1.2507674E-2,5.8E1,1E2,1.6E2,2.17E2,3.2177385E-2,7.2956085E-4,-5.559701E-3,9.2E1,2.3E2,4.7394843E-3,5E1,-1.7778531E-3,2.45E2,2.1E1,6E0,1.24E2,1.34E2,-3.352157E-2,-7.5350027E-3,1.98E2,1.42E2,-3.244476E-2,3.7E1,8.2E1,1.65E2,1.99E2,7E0,7.3E1,2.05E2,-1.8068014E-2,-2.558668E-3,1.43E2,1.6796805E-2,3.0728508E-2,1.32E2,1.59E2,5E1,-1.8564677E-2,-1.5423436E-3,-1.8785313E-3,3.8726062E-3,8.6E1,1.87E2,-6.6883387E-3,3.5984844E-3,-8.287023E-3,2.04E2,-4.4286866E-3,-1.2400942E-2,-6.2195556E-3,-2.8596897E-2,8E1,2.12E2,1.9462229E-3,1.9187523E-2,-1.3868958E-3,-2.8982162E-4,2.13E2,2.32E2,-9.644665E-3,5E1,1.74E2,2.15E2,6.195325E-3,2.4132043E-2,-2.4275481E-5,1.1946261E-3,2.1E1,2.7E1,1.808058E-2,-3.1091282E-2,6E0,3.9E1,1.68E2,7.9E1,2.05E2,1.35E2,5.4E1,-1.9901088E-2,1.15E2,1.25E2,1.45E2,9.4E1,1.59E2,1.53E2,1.34E2,2.11E2,-2.5692252E-2,8.6E1,-1.657517E-2,8.3E1,-3.112306E-2,2.05E2,3.710918E-3,-2.6600645E-3,1.9348359E-2,2.34E2,-1.6752288E-2,-3.5092488E-3,1.23E2,2.028172E-2,-9.111613E-4,-3.8266957E-3,7.890746E-3,5E1,1.88E2,2.05E2,1.8E1,2.6254312E-3,1.0411292E-4,-5.9626303E-3,2.4997832E-2,3.012207E-3,7.6E1,1.3058985E-2,2.7035436E-2,1.21E2,8.6E1,-6.549681E-3,9.1E1,5.754054E-4,-4.395634E-3,3.301941E-2,-6.040847E-3,9.47164E-4,-5.8509554E-3,-2.7777126E-2,1.2181753E-3,-2.0545615E-2,1.3924586E-2,-1.747285E-4,5.047381E-3,-1.21535305E-2,3.0220112E-2,1.3164306E-2,1.8581226E-2,-1.1253828E-2,2.3012878E-2,7.1815522E-3,-1.22496E-2,-1.6759798E-3,-2.9178286E-2,-1.2723315E-2,1.7735761E-3,1.12049235E-2,9.3992456E-4,-1.6050706E-2,-2.5585154E-2,-7.614754E-3,-1.9889027E-2,-4.6849E-3,1.8266207E-2,3.1531316E-3,2.7497364E-2,7.3839608E-3,1.9280571E-2,2.1883647E-3,1.3675163E-2,-6.0246694E-3,-1.5696278E-2,4.831507E-3,4.3164594E-3,-4.5399996E-3,1.8355079E-3,1.5377088E-2,1.8314719E-4,8.0981554E-4,-3.2260397E-3,6.6299955E-3,1.0597757E-2,1.2356878E-3,-3.2562658E-3,-6.292254E-4,8.7961555E-5,4.981558E-4,2.3319037E-3,1.563925E-2,7.443339E-4,1.4248977E-2,-7.3502595E-3,-1.8884603E-2],"split_indices":[10,1,1,10,10,2,4,1,11,10,4,0,0,7,9,0,1,2,2,2,7,11,7,4,2,0,0,8,9,10,0,9,11,5,9,0,11,7,11,0,7,9,10,0,0,11,10,9,0,9,10,0,9,0,0,0,0,0,0,11,5,9,9,0,5,0,7,9,9,0,0,10,11,0,10,0,7,2,0,0,11,0,9,0,0,3,11,0,0,0,10,11,9,0,6,11,5,8,8,0,10,0,9,8,10,10,0,0,9,8,1,0,0,0,0,0,1,0,0,0,3,0,5,9,9,2,0,0,0,9,10,0,7,0,0,9,0,9,3,0,0,3,10,0,5,8,4,11,1,10,11,0,0,9,0,0,10,9,3,0,0,0,0,0,11,0,0,0,10,0,0,0,0,0,10,0,0,0,0,11,10,0,7,9,0,0,0,0,0,6,1,0,0,6,3,6,6,6,11,10,0,11,6,11,10,9,11,8,1,0,10,0,8,0,9,0,0,0,2,0,0,9,0,0,0,0,0,11,3,0,0,0,0,0,0,0,0,0,9,0,0,9,0,0,0,0,0,0,0,0,0,0,0,0,0,0,0,0,0,0,0,0,0,0,0,0,0,0,0,0,0,0,0,0,0,0,0,0,0,0,0,0,0,0,0,0,0,0,0,0,0,0,0,0,0,0,0,0,0,0,0,0,0],"split_type":[0,0,0,0,0,0,0,0,0,0,0,0,0,0,0,0,0,0,0,0,0,0,0,0,0,0,0,0,0,0,0,0,0,0,0,0,0,0,0,0,0,0,0,0,0,0,0,0,0,0,0,0,0,0,0,0,0,0,0,0,0,0,0,0,0,0,0,0,0,0,0,0,0,0,0,0,0,0,0,0,0,0,0,0,0,0,0,0,0,0,0,0,0,0,0,0,0,0,0,0,0,0,0,0,0,0,0,0,0,0,0,0,0,0,0,0,0,0,0,0,0,0,0,0,0,0,0,0,0,0,0,0,0,0,0,0,0,0,0,0,0,0,0,0,0,0,0,0,0,0,0,0,0,0,0,0,0,0,0,0,0,0,0,0,0,0,0,0,0,0,0,0,0,0,0,0,0,0,0,0,0,0,0,0,0,0,0,0,0,0,0,0,0,0,0,0,0,0,0,0,0,0,0,0,0,0,0,0,0,0,0,0,0,0,0,0,0,0,0,0,0,0,0,0,0,0,0,0,0,0,0,0,0,0,0,0,0,0,0,0,0,0,0,0,0,0,0,0,0,0,0,0,0,0,0,0,0,0,0,0,0,0,0,0,0,0,0,0,0,0,0,0,0,0,0,0,0,0,0,0,0,0,0,0,0,0,0,0,0,0,0,0,0,0,0,0,0,0,0,0,0,0,0],"sum_hessian":[2.5E3,2.343E3,1.57E2,2.172E3,1.71E2,1.5E1,1.42E2,5.1E1,2.121E3,9.7E1,7.4E1,1E0,1.4E1,8E1,6.2E1,4.4E1,7E0,2.037E3,8.4E1,5.4E1,4.3E1,3.4E1,4E1,5.3E1,2.7E1,8E0,5.4E1,3.1E1,1.3E1,3E0,4E0,1.822E3,2.15E2,1.9E1,6.5E1,5E0,4.9E1,2.3E1,2E1,1E0,3.3E1,7E0,3.3E1,5.1E1,2E0,7E0,2E1,4E0,4E0,4E0,5E1,2.3E1,8E0,5E0,8E0,2E0,1E0,1.724E3,9.8E1,1.28E2,8.7E1,1.1E1,8E0,2E0,6.3E1,1E0,4.8E1,7E0,1.6E1,1.9E1,1E0,1.5E1,1.8E1,1E0,6E0,2E1,1.3E1,6E0,1E0,1E0,1.9E1,2E0,2E0,1E0,3E0,2.9E1,2.1E1,1E0,7E0,2E0,3E0,1.466E3,2.58E2,1.6E1,8.2E1,5.8E1,7E1,5.7E1,3E1,7E0,4E0,2E0,6E0,3.2E1,3.1E1,8E0,4E1,5E0,2E0,7E0,9E0,1.8E1,1E0,1E0,1.4E1,2E0,1.6E1,1E0,5E0,6E0,1.4E1,3E0,1E1,4E0,2E0,1.5E1,4E0,1E0,1E0,1.6E1,1.3E1,1E0,2E1,1E0,2E0,1.451E3,1.5E1,1.06E2,1.52E2,1.4E1,2E0,5.3E1,2.9E1,2.6E1,3.2E1,2.8E1,4.2E1,3.4E1,2.3E1,1.9E1,1.1E1,3E0,1E0,3E0,3E0,2.5E1,7E0,3E0,2.8E1,6E0,2E0,1E0,1E0,2E0,5E0,8E0,1E0,1E0,1.5E1,2E0,4E0,1E0,1.3E1,5E0,5E0,1E0,3E0,1E0,1E0,1.1E1,4E0,1E0,1.5E1,7E0,6E0,1E0,1.9E1,1E0,1E0,3.7E1,1.414E3,2E0,1.3E1,5.8E1,4.8E1,8.4E1,6.8E1,3.7E1,1.6E1,2.7E1,2E0,1.1E1,2.1E1,1.6E1,1.2E1,2.5E1,1.7E1,1.4E1,2E1,2E0,2.1E1,3E0,1.6E1,6E0,5E0,2E0,1E0,4E0,3E0,2E0,1E0,1.6E1,1.2E1,1E0,1E0,3E0,2E0,6E0,9E0,2E0,3E0,1E0,4E0,1E1,1E0,3E0,1E0,5E0,1E1,5E0,2E0,5E0,1E0,1.8E1,1.9E1,1.7E2,1.244E3,3E0,5.5E1,1.2E1,3.6E1,5.3E1,3.1E1,2.9E1,3.9E1,3.4E1,3E0,1.5E1,1E0,6E0,2.1E1,1E1,1E0,1.5E1,6E0,7E0,9E0,5E0,7E0,2.2E1,3E0,9E0,8E0,1.2E1,2E0,1.9E1,1E0,5E0,1.6E1,9E0,7E0,3E0,2E0,2E0,1E0,7E0,9E0,1E0,1E0,4E0,2E0,8E0,1E0,1E0,1E0,1E0,2E0,3E0,7E0,1E0,4E0,2E0,3E0],"tree_param":{"num_deleted":"0","num_feature":"12","num_nodes":"303","size_leaf_vector":"1"}},{"base_weights":[-1.2957196E-4,-8.909125E-3,1.3011982E-1,4.855954E-4,-8.553671E-2,-2.9915255E-1,1.7724036E-1,1.7282838E-1,-3.912005E-3,-1.7102775E-1,2.2452373E-2,-6.6617834E-3,-3.102137E-2,2.4869558E-1,8.255602E-2,2.3863804E-1,-2.1895458E-1,-6.1634973E-2,4.1197995E-3,-2.4411248E-1,-1.15254305E-1,8.9589976E-2,-1.1418046E-1,2.828293E-1,1.7398426E-1,4.66776E-2,2.3114948E-1,2.7806962E-1,1.3146317E-1,-6.1355248E-2,-3.0124312E-2,3.153917E-2,-2.0077984E-1,-6.5229554E-3,6.512011E-2,-8.343044E-3,-2.5696927E-1,9.7330615E-2,-1.3922778E-1,1.8751581E-1,1.9520042E-2,-5.3534202E-2,-2.0360243E-1,2.9560253E-2,1.9706685E-2,6.2591344E-2,2.081347E-1,1.3520224E-1,-8.388173E-3,2.5667062E-2,1.159395E-1,3.0811924E-2,2.1044947E-1,-8.444924E-2,2.6079774E-2,-1.05652055E-2,3.5767586E-3,-7.6731555E-2,1.00630835E-1,-2.4151856E-1,-1.1459529E-1,1.7587805E-2,-1.0503385E-1,-2.8351474E-1,1.4318427E-1,-1.9907086E-1,-2.885779E-1,1.4147491E-3,1.0596007E-2,-8.32565E-2,-1.8875879E-1,1.2781033E-1,2.0884511E-1,-3.6015417E-2,7.192819E-2,-7.291459E-2,1.0643339E-1,-2.666688E-2,-9.343106E-2,1.0215129E-1,-1.0716413E-2,1.7003936E-1,2.9603189E-2,-1.7415702E-2,2.0185392E-1,5.732242E-2,-2.2089908E-2,1.4915238E-2,8.150429E-4,2.4081461E-2,2.8960824E-2,-1.6505098E-2,-2.8856248E-3,-1.681596E-1,-9.233474E-3,-1.1439509E-2,1.4984035E-1,-1.9587533E-1,-3.3898637E-2,-1.1202951E-2,-2.058772E-1,2.5562368E-2,-8.710863E-2,-2.2177663E-1,-5.55203E-3,-3.126058E-2,-3.0524266E-1,2.0682515E-1,6.741389E-2,-1.00030646E-1,-2.1465665E-1,-2.9714776E-2,-1.0097383E-2,-9.089738E-3,-1.3933167E-1,-1.134484E-1,-2.5463122E-1,1.4332038E-2,-1.3645142E-3,5.435309E-3,2.1361363E-1,1.4295416E-2,-5.986748E-2,1.212919E-1,2.5627261E-3,-1.06090136E-1,6.110028E-2,1.458236E-2,1.382649E-3,-1.3194765E-1,1.9069413E-3,1.4938334E-1,-1.0619213E-2,2.130846E-1,5.5608977E-2,-1.7802775E-2,8.243467E-2,2.1654017E-1,5.466342E-4,-3.71638E-2,1.290899E-1,1.3432452E-2,-9.088329E-3,-1.6889602E-3,7.412235E-3,6.0103703E-2,-2.2823063E-1,-4.2174518E-2,1.2855563E-1,8.15205E-2,-1.4992622E-1,2.19865E-1,7.294495E-2,-2.551703E-1,-1.4440858E-1,1.0453654E-2,-4.3471165E-2,-2.201713E-1,-6.10163E-3,4.765007E-3,1.1349999E-1,-2.573143E-1,1.6116369E-1,-2.9128152E-1,-1.8023707E-1,6.6341326E-2,-1.0696688E-1,1.12391915E-2,-1.6449288E-2,-3.106654E-2,-3.3320964E-3,2.7036273E-1,7.616777E-2,1.712109E-1,2.0885377E-3,-1.1818855E-2,-1.3699516E-3,-2.1956198E-2,-6.31804E-3,3.4337178E-2,-5.1506683E-2,-1.6817781E-1,2.5308914E-2,-1.5586308E-1,-5.5447407E-2,-2.6100172E-2,-6.6796006E-3,2.1822853E-2,6.065777E-3,-1.2591703E-1,1.6276662E-4,1.2881604E-1,1.1739045E-3,1.0677329E-1,-7.2239496E-2,7.2291316E-3,-1.3290602E-1,-9.105504E-3,1.109393E-2,-4.038939E-3,-1.4473989E-2,-1.6024515E-3,1.8884927E-3,1.8489122E-3,1.774846E-2,-1.3175517E-3,-2.7533024E-4,2.2725302E-1,2.8615983E-3,1.7106628E-2,1.2406036E-2,1.6327233E-3,9.487972E-3,7.567749E-2,2.352718E-1,8.620522E-2,-1.3759956E-1,-8.8808686E-4,1.3957931E-1,-2.3061037E-5,1.1348963E-3,-1.5752763E-2,1.351355E-1,9.306885E-3,-2.500395E-1,-2.1965441E-1,2.4280647E-2,1.7274177E-2,1.2060215E-2,-1.0670337E-2,1.7489693E-1,-1.9206269E-1,4.0504057E-2,2.382956E-1,1.3248238E-1,-8.07931E-3,1.2880781E-1,-2.958858E-1,-1.3146986E-1,-1.5060782E-1,1.1485458E-3,-5.916527E-2,3.3795636E-3,-4.032284E-3,-2.2947302E-2,2.35748E-1,1.7068197E-4,-1.4315587E-1,1.3181537E-1,-2.7359462E-1,6.4482912E-3,7.1821466E-2,3.1370598E-1,-2.9458439E-2,-6.4720395E-3,-9.053647E-2,-2.423214E-1,1.3582897E-1,-6.43664E-2,-1.2648045E-1,8.114856E-2,3.5170472E-1,1.9766562E-1,-2.1533404E-2,1.7494561E-1,-3.482845E-2,2.2550584E-1,-2.6894161E-2,2.0470637E-1,5.4457787E-2,-4.4280365E-3,-1.00643806E-1,7.931781E-3,-1.8369118E-2,-1.8575583E-1,-6.5984414E-3,7.7734827E-3,-9.599722E-2,-1.8975174E-2,-1.0918384E-1,5.2453205E-2,-4.524966E-2,-1.9753446E-1,-2.443373E-2,8.209684E-3,4.4213417E-3,1.4017894E-2,1.7136784E-2,6.5876343E-3,-1.9070072E-2,1.3285142E-2,-9.147675E-2,-2.0575505E-1,1.0219276E-3,-2.3877532E-3,6.3968063E-3,2.371847E-2,3.4956783E-3,3.904894E-3,7.0711673E-4,1.0644508E-2,2.4702786E-2,5.8855596E-3,1.5225099E-2,-3.0590883E-2,-1.9984659E-2,1.2012005E-2,1.6816482E-2,8.6970255E-2,1.988867E-2,2.6339134E-3,-2.7629307E-2,-8.251529E-3,-2.937223E-2,1.699547E-4,9.681038E-3,-7.243607E-3,2.1844134E-3,-3.7538112E-4,-1.4683636E-2,2.302878E-2,1.9996505E-2,-1.2824029E-3,-2.5578484E-2,-1.0695045E-2,6.0135573E-3,6.205142E-5,5.6225434E-3,2.4332939E-2,1.5929101E-2,6.5850997E-3,-5.526922E-3,4.700621E-3,-1.3617277E-3,1.3747685E-2,-3.0479506E-2,-8.557806E-3,-2.9752627E-3,-1.43463975E-2,-1.742586E-2,-8.394421E-3,-2.934887E-3,-8.409019E-3,3.290504E-2,7.798873E-3,-1.6127441E-2,6.0747645E-4,-3.3543208E-3,-2.636356E-2,3.0408764E-2,1.0152976E-2,-3.3539407E-2,-1.8250471E-2,-4.189383E-3,3.6526937E-3,1.872308E-2,-1.0847467E-2,3.4887403E-2,-5.4155323E-3,-2.7766572E-3,-1.4002797E-2,-1.4310073E-3,-2.5115564E-2,1.8778658E-2,3.7303304E-3,-2.1169798E-2,-1.8328658E-3,-1.1189031E-2,-2.7042994E-2,2.2287128E-2,-1.821055E-2,3.7289925E-2,2.3091149E-2,2.0531422E-2,-6.561211E-3,1.4984786E-2,-1.0007577E-2,2.2818329E-2,6.6566193E-3,1.9090502E-2,-1.2659587E-2,2.601221E-2,-6.523007E-4,-8.981426E-3,8.224955E-3,2.4627298E-2,-4.312998E-3,6.465338E-3,1.7399043E-4,-1.103289E-3,7.693261E-4,-4.613082E-3,-1.2160886E-2,-3.4097254E-3,4.731689E-3,-2.1910772E-3,-5.642906E-4,-1.9956639E-2,1.0701284E-3,-1.0827932E-2,-1.7293394E-3,-1.2009537E-2,-2.1857338E-3,6.549927E-3,6.657511E-4,2.7274103E-3,-6.520923E-3,-2.173752E-2,-5.9085772E-3,9.309747E-4,-7.737638E-3,-5.9776456E-4,1.5859097E-3,1.0029859E-2,-1.6738433E-2,-1.1593071E-2,-3.4055077E-3,-2.321794E-2,-5.002886E-3,8.3562736E-5,4.6494402E-4,6.930828E-4,-5.281715E-3,-2.7007104E-3,4.502511E-3,1.7875314E-3,1.1103316E-2],"categories":[],"categories_nodes":[],"categories_segments":[],"categories_sizes":[],"default_left":[0,0,0,0,0,0,0,0,0,0,0,0,0,0,0,0,0,0,0,0,0,0,0,0,0,0,0,0,0,0,0,0,0,0,0,0,0,0,0,0,0,0,0,0,0,0,0,0,0,0,0,0,0,0,0,0,0,0,0,0,0,0,0,0,0,0,0,0,0,0,0,0,0,0,0,0,0,0,0,0,0,0,0,0,0,0,0,0,0,0,0,0,0,0,0,0,0,0,0,0,0,0,0,0,0,0,0,0,0,0,0,0,0,0,0,0,0,0,0,0,0,0,0,0,0,0,0,0,0,0,0,0,0,0,0,0,0,0,0,0,0,0,0,0,0,0,0,0,0,0,0,0,0,0,0,0,0,0,0,0,0,0,0,0,0,0,0,0,0,0,0,0,0,0,0,0,0,0,0,0,0,0,0,0,0,0,0,0,0,0,0,0,0,0,0,0,0,0,0,0,0,0,0,0,0,0,0,0,0,0,0,0,0,0,0,0,0,0,0,0,0,0,0,0,0,0,0,0,0,0,0,0,0,0,0,0,0,0,0,0,0,0,0,0,0,0,0,0,0,0,0,0,0,0,0,0,0,0,0,0,0,0,0,0,0,0,0,0,0,0,0,0,0,0,0,0,0,0,0,0,0,0,0,0,0,0,0,0,0,0,0,0,0,0,0,0,0,0,0,0,0,0,0,0,0,0,0,0,0,0,0,0,0,0,0,0,0,0,0,0,0,0,0,0,0,0,0,0,0,0,0,0,0,0,0,0,0,0,0,0,0,0,0,0,0,0,0,0,0,0,0,0,0,0,0,0,0,0,0,0,0,0,0,0,0,0,0,0,0,0,0,0,0,0,0,0,0,0,0,0,0,0,0,0,0,0,0,0,0,0,0,0,0,0,0,0,0,0,0,0,0,0,0,0,0,0,0,0,0,0,0,0,0,0,0,0,0,0,0,0,0,0,0,0,0,0,0],"id":3,"left_children":[1,3,5,7,9,11,13,15,17,19,21,-1,-1,23,25,27,29,31,33,35,37,39,41,43,45,47,49,51,53,55,-1,57,59,61,63,-1,65,67,69,71,73,75,77,-1,-1,79,81,83,85,-1,87,-1,89,91,-1,-1,-1,93,95,97,99,101,103,105,107,109,111,-1,-1,113,115,117,119,121,123,125,127,-1,129,131,-1,133,-1,135,137,139,-1,-1,-1,-1,141,-1,143,145,147,149,151,153,-1,155,157,159,161,163,165,167,169,171,173,175,177,-1,-1,179,181,183,185,-1,-1,-1,187,-1,189,191,193,195,197,-1,-1,199,201,203,205,207,209,-1,211,213,-1,215,217,-1,-1,-1,219,221,223,225,227,229,231,233,235,237,239,-1,241,243,-1,245,247,249,251,253,255,257,259,-1,-1,-1,-1,261,263,265,267,-1,-1,-1,-1,269,271,273,275,277,279,-1,-1,-1,-1,281,283,285,-1,287,289,-1,291,293,-1,-1,-1,-1,-1,-1,-1,-1,-1,295,-1,297,-1,-1,-1,299,301,303,305,-1,307,-1,-1,-1,309,-1,311,313,315,-1,317,319,321,323,325,327,329,331,333,335,337,339,-1,341,-1,-1,-1,343,345,347,349,351,353,355,357,-1,-1,359,361,363,365,367,369,371,373,375,377,379,381,383,385,387,389,391,393,395,397,-1,-1,399,-1,401,403,405,407,409,-1,-1,-1,-1,411,-1,413,415,417,-1,-1,-1,-1,-1,419,-1,-1,-1,-1,-1,421,-1,423,-1,425,-1,-1,-1,-1,-1,-1,-1,-1,-1,-1,-1,-1,-1,-1,-1,-1,-1,-1,-1,-1,-1,-1,-1,-1,-1,-1,-1,-1,-1,-1,-1,-1,-1,-1,-1,-1,-1,-1,-1,-1,-1,-1,-1,-1,-1,-1,-1,-1,-1,-1,-1,-1,-1,-1,-1,-1,-1,-1,-1,-1,-1,-1,-1,-1,-1,-1,-1,-1,-1,-1,-1,-1,-1,-1,-1,-1,-1,-1,-1,-1,-1,-1,-1,-1,-1,-1,-1,-1,-1,-1,-1,-1,-1,-1,-1,-1,-1,-1,-1,-1,-1,-1,-1,-1,-1,-1,-1,-1,-1,-1,-1,-1,-1,-1,-1,-1,-1,-1],"loss_changes":[2.8611314E0,1.6874748E0,3.2489743E0,1.5839181E0,2.367257E0,2.0487666E-2,9.4696283E-1,1.3929726E0,9.451107E-1,5.5476E-1,1.0559742E0,0E0,0E0,1.5735626E-1,3.2508224E-1,1.5361762E-1,8.526611E-2,3.2345438E0,1.1625131E0,1.0457778E-1,4.3655205E-1,5.246873E-1,1.9517836E-1,9.0169907E-4,9.348786E-2,2.5461736E-1,5.5252314E-3,1.7929077E-4,4.1297334E-1,2.0987846E-2,0E0,1.1298124E0,3.2342768E-1,3.6239858E0,7.2800217E0,0E0,4.5037746E-2,4.961364E-3,1.9220817E-1,1.405859E-2,1.3647401E-1,8.216617E-2,7.930648E-2,0E0,0E0,6.4671084E-2,1.9980848E-2,2.0696026E-1,4.7348163E-1,0E0,1.310429E-2,0E0,6.466788E-2,3.896874E-2,0E0,0E0,0E0,3.625492E-1,5.090875E-1,2.3166704E-1,3.1858048E-1,1.0258243E0,3.482904E0,2.5902462E-1,1.0372734E0,1.4031053E-2,2.465868E-2,0E0,0E0,1.5261334E-1,1.6458666E-1,2.6089445E-2,4.59677E-3,1.0674055E-1,8.186845E-2,1.0429448E-1,8.927185E-3,0E0,2.595628E-2,3.8871005E-2,0E0,7.1887195E-2,0E0,1.2693585E-1,3.919506E-2,1.8110448E-1,0E0,0E0,0E0,0E0,5.008951E-2,0E0,7.020337E-4,3.565178E-1,1.6428386E-1,3.8556013E-1,3.2857454E-1,1.0963392E-1,0E0,6.803434E-2,2.3837745E-2,2.0843716E0,3.71786E0,3.4593487E-1,1.1955382E0,1.14183426E-1,5.600357E-2,9.590025E-1,6.8448067E-1,6.218832E-3,2.4569035E-4,0E0,0E0,3.308322E-2,1.03990555E-1,4.055965E-2,6.4982176E-3,0E0,0E0,0E0,1.5861392E-3,0E0,8.328487E-2,1.0027885E-2,9.346025E-2,9.571017E-2,1.8505095E-2,0E0,0E0,1.0214746E-5,1.2159417E-3,1.5109926E-2,2.4046778E-5,2.4860501E-2,1.3690978E-2,0E0,2.5644265E-3,1.6496897E-2,0E0,1.6054974E-1,2.2948056E-2,0E0,0E0,0E0,9.288061E-5,1.19263195E-1,1.6341436E-1,3.4737253E-1,3.394907E-2,1.568183E-1,1.0406801E-1,2.1577239E-2,1.458806E-1,6.6866994E-2,2.878964E-2,0E0,1.8976392E-2,1.7513394E-2,0E0,9.794574E-1,1.0436339E0,2.2505951E-1,4.680941E-1,1.834917E-2,4.7370195E-1,8.806697E-1,2.598784E-1,0E0,0E0,0E0,0E0,3.9763308E-1,3.8979557E-1,4.4414282E-1,3.7546733E-1,0E0,0E0,0E0,0E0,7.2609605E-3,2.7084004E-2,4.398793E-2,2.4273831E-2,4.100859E-3,6.3708976E-2,0E0,0E0,0E0,0E0,4.8833534E-2,2.6189424E-2,6.2995106E-3,0E0,3.122833E-2,7.345296E-2,0E0,2.9467523E-2,1.1004095E-3,0E0,0E0,0E0,0E0,0E0,0E0,0E0,0E0,0E0,2.6664138E-3,0E0,1.0417625E-3,0E0,0E0,0E0,5.5798627E-3,8.274615E-3,5.0940823E-2,6.759068E-2,0E0,6.428629E-3,0E0,0E0,0E0,2.9440992E-2,0E0,6.0765743E-2,1.3166097E-1,1.61339E-1,0E0,5.461682E-4,3.6191767E-1,4.491666E-2,2.6879072E-2,2.3116083E-3,1.014781E-2,3.8008988E-3,3.8990725E-2,2.533111E-2,2.021432E-3,4.271619E-3,2.7941346E-2,0E0,6.4501055E-3,0E0,0E0,0E0,2.3928547E-1,8.6456543E-1,1.8924835E-1,1.0334697E0,2.1462488E-1,7.346515E-3,5.196984E-1,1.8707383E-1,0E0,0E0,1.1416182E-1,1.01150036E-1,3.155018E-1,2.2673549E-1,9.995657E-2,3.0174968E-1,6.05917E-3,1.0207403E-1,2.976706E-1,1.00208044E-1,2.1060258E-1,2.5068772E-1,3.9195782E-1,9.303552E-2,3.1124502E-3,4.0511644E-4,1.0442361E-4,9.889966E-3,1.1575059E-5,4.554659E-2,0E0,0E0,3.927365E-3,0E0,4.045099E-3,1.9537518E-3,1.0463783E-2,8.908212E-4,1.8585047E-2,0E0,0E0,0E0,0E0,4.4429564E-4,0E0,9.539178E-2,1.2902223E-2,8.959144E-3,0E0,0E0,0E0,0E0,0E0,5.2556497E-6,0E0,0E0,0E0,0E0,0E0,2.86797E-3,0E0,5.080424E-3,0E0,9.653632E-3,0E0,0E0,0E0,0E0,0E0,0E0,0E0,0E0,0E0,0E0,0E0,0E0,0E0,0E0,0E0,0E0,0E0,0E0,0E0,0E0,0E0,0E0,0E0,0E0,0E0,0E0,0E0,0E0,0E0,0E0,0E0,0E0,0E0,0E0,0E0,0E0,0E0,0E0,0E0,0E0,0E0,0E0,0E0,0E0,0E0,0E0,0E0,0E0,0E0,0E0,0E0,0E0,0E0,0E0,0E0,0E0,0E0,0E0,0E0,0E0,0E0,0E0,0E0,0E0,0E0,0E0,0E0,0E0,0E0,0E0,0E0,0E0,0E0,0E0,0E0,0E0,0E0,0E0,0E0,0E0,0E0,0E0,0E0,0E0,0E0,0E0,0E0,0E0,0E0,0E0,0E0,0E0,0E0,0E0,0E0,0E0,0E0,0E0,0E0,0E0,0E0,0E0,0E0,0E0,0E0,0E0,0E0,0E0,0E0,0E0,0E0,0E0,0E0,0E0,0E0,0E0,0E0,0E0],"parents":[2147483647,0,0,1,1,2,2,3,3,4,4,5,5,6,6,7,7,8,8,9,9,10,10,13,13,14,14,15,15,16,16,17,17,18,18,19,19,20,20,21,21,22,22,23,23,24,24,25,25,26,26,27,27,28,28,29,29,31,31,32,32,33,33,34,34,36,36,37,37,38,38,39,39,40,40,41,41,42,42,45,45,46,46,47,47,48,48,50,50,52,52,53,53,57,57,58,58,59,59,60,60,61,61,62,62,63,63,64,64,65,65,66,66,69,69,70,70,71,71,72,72,73,73,74,74,75,75,76,76,78,78,79,79,81,81,83,83,84,84,85,85,90,90,92,92,93,93,94,94,95,95,96,96,97,97,99,99,100,100,101,101,102,102,103,103,104,104,105,105,106,106,107,107,108,108,109,109,110,110,113,113,114,114,115,115,116,116,120,120,122,122,123,123,124,124,125,125,126,126,129,129,130,130,131,131,132,132,133,133,134,134,136,136,137,137,139,139,140,140,144,144,145,145,146,146,147,147,148,148,149,149,150,150,151,151,152,152,153,153,154,154,156,156,157,157,159,159,160,160,161,161,162,162,163,163,164,164,165,165,166,166,171,171,172,172,173,173,174,174,179,179,180,180,181,181,182,182,183,183,184,184,189,189,190,190,191,191,193,193,194,194,196,196,197,197,207,207,209,209,213,213,214,214,215,215,216,216,218,218,222,222,224,224,225,225,226,226,228,228,229,229,230,230,231,231,232,232,233,233,234,234,235,235,236,236,237,237,238,238,239,239,241,241,245,245,246,246,247,247,248,248,249,249,250,250,251,251,252,252,255,255,256,256,257,257,258,258,259,259,260,260,261,261,262,262,263,263,264,264,265,265,266,266,267,267,268,268,269,269,270,270,271,271,272,272,273,273,274,274,277,277,279,279,280,280,281,281,282,282,283,283,288,288,290,290,291,291,292,292,298,298,304,304,306,306,308,308],"right_children":[2,4,6,8,10,12,14,16,18,20,22,-1,-1,24,26,28,30,32,34,36,38,40,42,44,46,48,50,52,54,56,-1,58,60,62,64,-1,66,68,70,72,74,76,78,-1,-1,80,82,84,86,-1,88,-1,90,92,-1,-1,-1,94,96,98,100,102,104,106,108,110,112,-1,-1,114,116,118,120,122,124,126,128,-1,130,132,-1,134,-1,136,138,140,-1,-1,-1,-1,142,-1,144,146,148,150,152,154,-1,156,158,160,162,164,166,168,170,172,174,176,178,-1,-1,180,182,184,186,-1,-1,-1,188,-1,190,192,194,196,198,-1,-1,200,202,204,206,208,210,-1,212,214,-1,216,218,-1,-1,-1,220,222,224,226,228,230,232,234,236,238,240,-1,242,244,-1,246,248,250,252,254,256,258,260,-1,-1,-1,-1,262,264,266,268,-1,-1,-1,-1,270,272,274,276,278,280,-1,-1,-1,-1,282,284,286,-1,288,290,-1,292,294,-1,-1,-1,-1,-1,-1,-1,-1,-1,296,-1,298,-1,-1,-1,300,302,304,306,-1,308,-1,-1,-1,310,-1,312,314,316,-1,318,320,322,324,326,328,330,332,334,336,338,340,-1,342,-1,-1,-1,344,346,348,350,352,354,356,358,-1,-1,360,362,364,366,368,370,372,374,376,378,380,382,384,386,388,390,392,394,396,398,-1,-1,400,-1,402,404,406,408,410,-1,-1,-1,-1,412,-1,414,416,418,-1,-1,-1,-1,-1,420,-1,-1,-1,-1,-1,422,-1,424,-1,426,-1,-1,-1,-1,-1,-1,-1,-1,-1,-1,-1,-1,-1,-1,-1,-1,-1,-1,-1,-1,-1,-1,-1,-1,-1,-1,-1,-1,-1,-1,-1,-1,-1,-1,-1,-1,-1,-1,-1,-1,-1,-1,-1,-1,-1,-1,-1,-1,-1,-1,-1,-1,-1,-1,-1,-1,-1,-1,-1,-1,-1,-1,-1,-1,-1,-1,-1,-1,-1,-1,-1,-1,-1,-1,-1,-1,-1,-1,-1,-1,-1,-1,-1,-1,-1,-1,-1,-1,-1,-1,-1,-1,-1,-1,-1,-1,-1,-1,-1,-1,-1,-1,-1,-1,-1,-1,-1,-1,-1,-1,-1,-1,-1,-1,-1,-1,-1,-1],"split_conditions":[2.19E2,2.25E2,2.08E2,2.5E1,1.87E2,1.2E1,2.05E2,2.6E1,2.7E1,1.36E2,1.84E2,-6.6617834E-3,-3.102137E-2,2.12E2,2.46E2,2.08E2,4E1,8.5E1,1.88E2,2.3E1,1.1E1,1.43E2,1.55E2,1.84E2,1.41E2,1.4E2,1.49E2,2.2E1,1.92E2,1.9E1,-3.0124312E-2,7.7E1,2.12E2,1.88E2,1.79E2,-8.343044E-3,1.02E2,1.57E2,1.32E2,1.09E2,2.06E2,2.15E2,2.06E2,2.9560253E-2,1.9706685E-2,1.38E2,2.14E2,2.27E2,1.32E2,2.5667062E-2,1.28E2,3.0811924E-2,1.91E2,2.44E2,2.6079774E-2,-1.05652055E-2,3.5767586E-3,8.3E1,4.8E1,1.33E2,1.4E2,1.7E2,1.44E2,1.9E2,1.74E2,4E0,2.27E2,1.4147491E-3,1.0596007E-2,1.49E2,1.19E2,1.6E2,9E0,2.1E1,2.11E2,1.45E2,7.1E1,-2.666688E-2,1.47E2,1.19E2,-1.0716413E-2,2.17E2,2.9603189E-2,1.55E2,1.64E2,6.4E1,-2.2089908E-2,1.4915238E-2,8.150429E-4,2.4081461E-2,4.5E1,-1.6505098E-2,1.2E1,3.2E1,2.22E2,4.7E1,5.7E1,1.4E2,-3.3898637E-2,9.8E1,2.01E2,1.88E2,1.58E2,9.5E1,1.36E2,1.78E2,2.13E2,1.96E2,1.19E2,1.55E2,2.49E2,-2.9714776E-2,-1.0097383E-2,1.31E2,1.81E2,1.46E2,1.84E2,1.4332038E-2,-1.3645142E-3,5.435309E-3,2.31E2,1.4295416E-2,1.02E2,2.05E2,2.11E2,2.4E1,2.04E2,1.458236E-2,1.382649E-3,1.64E2,1.81E2,1E2,1.6E2,2.13E2,2.32E2,-1.7802775E-2,1.21E2,2.28E2,5.466342E-4,4.8E1,2.25E2,1.3432452E-2,-9.088329E-3,-1.6889602E-3,2.45E2,7E0,4.5E1,1.09E2,7.9E1,1.62E2,1.28E2,1.94E2,1.48E2,2.26E2,2.17E2,1.0453654E-2,1.8E1,3E1,-6.10163E-3,2.7E1,1.7E1,2.41E2,1.79E2,2.5E2,7.2E1,1.43E2,1.84E2,1.12391915E-2,-1.6449288E-2,-3.106654E-2,-3.3320964E-3,2.27E2,2.01E2,7.8E1,2.15E2,-1.1818855E-2,-1.3699516E-3,-2.1956198E-2,-6.31804E-3,7.8E1,9.4E1,6.1E1,9.6E1,1.05E2,1.72E2,-2.6100172E-2,-6.6796006E-3,2.1822853E-2,6.065777E-3,1.49E2,2.04E2,3.7E1,1.1739045E-3,9.5E1,1.09E2,7.2291316E-3,1.17E2,1.02E2,1.109393E-2,-4.038939E-3,-1.4473989E-2,-1.6024515E-3,1.8884927E-3,1.8489122E-3,1.774846E-2,-1.3175517E-3,-2.7533024E-4,1.33E2,2.8615983E-3,7.6E1,1.2406036E-2,1.6327233E-3,9.487972E-3,8.6E1,2.41E2,2.32E2,6.2E1,-8.8808686E-4,8.9E1,-2.3061037E-5,1.1348963E-3,-1.5752763E-2,1.12E2,9.306885E-3,2.2E2,6.8E1,5.3E1,1.7274177E-2,1.05E2,1.23E2,1.46E2,1.37E2,3.8E1,7.8E1,8.2E1,1.43E2,7E0,2.05E2,9.8E1,1.85E2,1.1485458E-3,7E0,3.3795636E-3,-4.032284E-3,-2.2947302E-2,1.43E2,1.6E1,7.7E1,6.7E1,2.08E2,1.41E2,1.78E2,1.58E2,-2.9458439E-2,-6.4720395E-3,2.17E2,6E0,2.31E2,1.62E2,1.64E2,1.52E2,1.92E2,2.36E2,1.92E2,1.1E2,4E1,1.49E2,2.29E2,1.32E2,1.87E2,1.08E2,1.33E2,1.53E2,1.17E2,1.95E2,-6.5984414E-3,7.7734827E-3,8.6E1,-1.8975174E-2,2.25E2,1.96E2,1.28E2,1.79E2,1.99E2,8.209684E-3,4.4213417E-3,1.4017894E-2,1.7136784E-2,8E1,-1.9070072E-2,2.35E2,2.09E2,1.43E2,1.0219276E-3,-2.3877532E-3,6.3968063E-3,2.371847E-2,3.4956783E-3,7.6E1,7.0711673E-4,1.0644508E-2,2.4702786E-2,5.8855596E-3,1.5225099E-2,6.2E1,-1.9984659E-2,1.78E2,1.6816482E-2,2.28E2,1.988867E-2,2.6339134E-3,-2.7629307E-2,-8.251529E-3,-2.937223E-2,1.699547E-4,9.681038E-3,-7.243607E-3,2.1844134E-3,-3.7538112E-4,-1.4683636E-2,2.302878E-2,1.9996505E-2,-1.2824029E-3,-2.5578484E-2,-1.0695045E-2,6.0135573E-3,6.205142E-5,5.6225434E-3,2.4332939E-2,1.5929101E-2,6.5850997E-3,-5.526922E-3,4.700621E-3,-1.3617277E-3,1.3747685E-2,-3.0479506E-2,-8.557806E-3,-2.9752627E-3,-1.43463975E-2,-1.742586E-2,-8.394421E-3,-2.934887E-3,-8.409019E-3,3.290504E-2,7.798873E-3,-1.6127441E-2,6.0747645E-4,-3.3543208E-3,-2.636356E-2,3.0408764E-2,1.0152976E-2,-3.3539407E-2,-1.8250471E-2,-4.189383E-3,3.6526937E-3,1.872308E-2,-1.0847467E-2,3.4887403E-2,-5.4155323E-3,-2.7766572E-3,-1.4002797E-2,-1.4310073E-3,-2.5115564E-2,1.8778658E-2,3.7303304E-3,-2.1169798E-2,-1.8328658E-3,-1.1189031E-2,-2.7042994E-2,2.2287128E-2,-1.821055E-2,3.7289925E-2,2.3091149E-2,2.0531422E-2,-6.561211E-3,1.4984786E-2,-1.0007577E-2,2.2818329E-2,6.6566193E-3,1.9090502E-2,-1.2659587E-2,2.601221E-2,-6.523007E-4,-8.981426E-3,8.224955E-3,2.4627298E-2,-4.312998E-3,6.465338E-3,1.7399043E-4,-1.103289E-3,7.693261E-4,-4.613082E-3,-1.2160886E-2,-3.4097254E-3,4.731689E-3,-2.1910772E-3,-5.642906E-4,-1.9956639E-2,1.0701284E-3,-1.0827932E-2,-1.7293394E-3,-1.2009537E-2,-2.1857338E-3,6.549927E-3,6.657511E-4,2.7274103E-3,-6.520923E-3,-2.173752E-2,-5.9085772E-3,9.309747E-4,-7.737638E-3,-5.9776456E-4,1.5859097E-3,1.0029859E-2,-1.6738433E-2,-1.1593071E-2,-3.4055077E-3,-2.321794E-2,-5.002886E-3,8.3562736E-5,4.6494402E-4,6.930828E-4,-5.281715E-3,-2.7007104E-3,4.502511E-3,1.7875314E-3,1.1103316E-2],"split_indices":[10,1,1,10,10,2,4,1,1,10,4,0,0,7,10,0,1,10,9,2,7,7,0,4,2,7,2,10,9,10,0,7,7,0,0,0,9,10,7,11,10,10,10,0,0,11,11,10,11,0,9,0,2,0,0,0,0,4,4,10,10,9,9,9,6,7,0,0,0,5,4,0,0,2,7,11,0,0,9,2,0,2,0,0,0,11,0,0,0,0,0,0,10,10,4,10,10,4,0,10,3,6,0,9,3,0,11,3,3,11,5,0,0,9,10,3,9,0,0,0,3,0,5,3,10,7,10,0,0,0,0,9,9,11,10,0,9,10,0,11,10,0,0,0,0,1,9,9,9,2,6,3,7,8,9,0,1,9,0,11,3,2,0,5,3,6,9,0,0,0,0,0,9,10,11,0,0,0,0,0,11,11,0,9,10,0,0,0,0,2,10,0,0,4,9,0,8,9,0,0,0,0,0,0,0,0,0,11,0,9,0,0,0,0,10,10,11,0,11,0,0,0,3,0,2,10,10,0,9,9,9,0,0,7,9,5,11,0,10,5,0,1,0,0,0,7,2,9,9,3,0,9,11,0,0,0,6,0,9,6,2,2,2,9,11,1,1,6,10,11,0,9,10,9,11,0,0,9,0,0,3,9,6,10,0,0,0,0,0,0,1,10,11,0,0,0,0,0,0,0,0,0,0,0,9,0,9,0,1,0,0,0,0,0,0,0,0,0,0,0,0,0,0,0,0,0,0,0,0,0,0,0,0,0,0,0,0,0,0,0,0,0,0,0,0,0,0,0,0,0,0,0,0,0,0,0,0,0,0,0,0,0,0,0,0,0,0,0,0,0,0,0,0,0,0,0,0,0,0,0,0,0,0,0,0,0,0,0,0,0,0,0,0,0,0,0,0,0,0,0,0,0,0,0,0,0,0,0,0,0,0,0,0,0,0,0,0,0,0,0,0,0,0,0,0,0,0],"split_type":[0,0,0,0,0,0,0,0,0,0,0,0,0,0,0,0,0,0,0,0,0,0,0,0,0,0,0,0,0,0,0,0,0,0,0,0,0,0,0,0,0,0,0,0,0,0,0,0,0,0,0,0,0,0,0,0,0,0,0,0,0,0,0,0,0,0,0,0,0,0,0,0,0,0,0,0,0,0,0,0,0,0,0,0,0,0,0,0,0,0,0,0,0,0,0,0,0,0,0,0,0,0,0,0,0,0,0,0,0,0,0,0,0,0,0,0,0,0,0,0,0,0,0,0,0,0,0,0,0,0,0,0,0,0,0,0,0,0,0,0,0,0,0,0,0,0,0,0,0,0,0,0,0,0,0,0,0,0,0,0,0,0,0,0,0,0,0,0,0,0,0,0,0,0,0,0,0,0,0,0,0,0,0,0,0,0,0,0,0,0,0,0,0,0,0,0,0,0,0,0,0,0,0,0,0,0,0,0,0,0,0,0,0,0,0,0,0,0,0,0,0,0,0,0,0,0,0,0,0,0,0,0,0,0,0,0,0,0,0,0,0,0,0,0,0,0,0,0,0,0,0,0,0,0,0,0,0,0,0,0,0,0,0,0,0,0,0,0,0,0,0,0,0,0,0,0,0,0,0,0,0,0,0,0,0,0,0,0,0,0,0,0,0,0,0,0,0,0,0,0,0,0,0,0,0,0,0,0,0,0,0,0,0,0,0,0,0,0,0,0,0,0,0,0,0,0,0,0,0,0,0,0,0,0,0,0,0,0,0,0,0,0,0,0,0,0,0,0,0,0,0,0,0,0,0,0,0,0,0,0,0,0,0,0,0,0,0,0,0,0,0,0,0,0,0,0,0,0,0,0,0,0,0,0,0,0,0,0,0,0,0,0,0,0,0,0,0,0,0,0,0,0,0,0,0,0,0,0,0,0,0,0,0,0,0,0,0,0,0,0,0,0,0,0,0,0,0],"sum_hessian":[2.5E3,2.343E3,1.57E2,2.088E3,2.55E2,1.5E1,1.42E2,5.1E1,2.037E3,1.42E2,1.13E2,1E0,1.4E1,8E1,6.2E1,4.4E1,7E0,2.48E2,1.789E3,6E1,8.2E1,7.6E1,3.7E1,5.3E1,2.7E1,5.1E1,1.1E1,3.1E1,1.3E1,3E0,4E0,1.49E2,9.9E1,1.524E3,2.65E2,5E0,5.5E1,8E0,7.4E1,3.1E1,4.5E1,2.3E1,1.4E1,4.4E1,9E0,7E0,2E1,1.9E1,3.2E1,8E0,3E0,1.9E1,1.2E1,5E0,8E0,2E0,1E0,5.8E1,9.1E1,6.6E1,3.3E1,1.225E3,2.99E2,4.8E1,2.17E2,2.2E1,3.3E1,1E0,7E0,3.6E1,3.8E1,1E1,2.1E1,2.2E1,2.3E1,2.1E1,2E0,8E0,6E0,6E0,1E0,1.6E1,4E0,6E0,1.3E1,2.5E1,7E0,2E0,1E0,1E1,2E0,2E0,3E0,2.4E1,3.4E1,2.8E1,6.3E1,4.7E1,1.9E1,1.6E1,1.7E1,1.139E3,8.6E1,1.37E2,1.62E2,4E0,4.4E1,1.17E2,1E2,4E0,1.8E1,3.1E1,2E0,1.6E1,2E1,1.9E1,1.9E1,9E0,1E0,1E0,2E1,2E0,2E1,1.3E1,1E1,1.7E1,4E0,1E0,1E0,4E0,2E0,4E0,2E0,1.1E1,5E0,2E0,4E0,1.2E1,1E0,1.1E1,1.4E1,1E0,1E0,1E0,2E0,5E0,1.9E1,2.8E1,6E0,1.7E1,1.1E1,3.2E1,3.1E1,2E1,2.7E1,3E0,1.3E1,1.5E1,2E0,9.22E2,2.17E2,5.1E1,3.5E1,4.9E1,8.8E1,9.5E1,6.7E1,2E0,2E0,4.3E1,1E0,7.8E1,3.9E1,3.8E1,6.2E1,3E0,1E0,1.7E1,1E0,8E0,8E0,1.7E1,3E0,1E1,9E0,1.8E1,1E0,1.9E1,1E0,9E0,1.1E1,1.2E1,1E0,4E0,6E0,2E0,1.5E1,2E0,2E0,1E0,3E0,1E0,1E0,1E0,3E0,1E0,1E0,1E1,1E0,4E0,1E0,1E0,3E0,2E0,1E1,5E0,6E0,1E0,1.3E1,1E0,1E0,1E0,4E0,1E0,1.8E1,7E0,2.1E1,4E0,2E0,9E0,8E0,9E0,2E0,2.5E1,7E0,1.3E1,1.8E1,1.4E1,6E0,2.6E1,1E0,1.1E1,2E0,1E0,1.4E1,1.7E1,9.05E2,1.4E1,2.03E2,4.8E1,3E0,2.3E1,1.2E1,4.8E1,1E0,3.7E1,5.1E1,6.2E1,3.3E1,6.1E1,6E0,3.5E1,4.3E1,2E1,1.9E1,8E0,3E1,5.5E1,7E0,5E0,3E0,4E0,4E0,2E0,1.5E1,1E0,2E0,5E0,5E0,6E0,3E0,5E0,4E0,9E0,2E0,2E0,1E1,2E0,2E0,2E0,4E0,1.1E1,4E0,1E0,1E0,1E0,9E0,1E0,3E0,1E0,1E0,9E0,1E0,3E0,2E0,4E0,2E0,7E0,6E0,2E0,2E0,1.5E1,3E0,5E0,2E0,1.2E1,9E0,1E0,1E0,6E0,3E0,7E0,1E0,4E0,5E0,1E0,1E0,1E0,2.4E1,4E0,3E0,7E0,6E0,1E0,1.7E1,1.3E1,1E0,1E0,5E0,1.8E1,8E0,6E0,5E0,1E1,7E0,3.1E1,8.74E2,8E0,6E0,2.9E1,1.74E2,2.7E1,2.1E1,1E0,2E0,1.4E1,9E0,1.1E1,1E0,1.7E1,2E1,2E0,4.9E1,4E1,2.2E1,7E0,2.6E1,5.7E1,4E0,4E0,2E0,2.8E1,7E0,4.2E1,1E0,6E0,1.4E1,1.2E1,7E0,2E0,6E0,2.6E1,4E0,3.5E1,2E1,6E0,1E0,4E0,1E0,2E0,1E0,2E0,2E0,2E0,2E0,1E0,1E0,1.4E1,1E0,4E0,1E0,5E0,1E0,2E0,1E0,1E0,4E0,3E0,1E0,6E0,3E0,1E0,1E0,3E0,1E0,7E0,4E0,3E0,1E0,1E0,2E0,1E0,1E0,1E0,1E0,2E0,4E0],"tree_param":{"num_deleted":"0","num_feature":"12","num_nodes":"427","size_leaf_vector":"1"}},{"base_weights":[-1.446957E-4,-8.122529E-3,1.18210904E-1,4.1151102E-4,-7.7729896E-2,-2.715925E-1,1.6099863E-1,1.5614405E-1,-3.5622395E-3,-1.5517333E-1,2.0095894E-2,-6.3286945E-3,-2.8126044E-2,2.2549991E-1,7.551286E-2,2.1629058E-1,-2.0169823E-1,-7.654117E-3,9.4137356E-2,-2.211704E-1,-1.04799904E-1,8.1183046E-2,-1.042148E-1,2.554587E-1,1.5966862E-1,-8.954461E-2,1.0114931E-1,2.5211385E-1,1.1895953E-1,-5.696684E-2,-2.771437E-2,7.9387695E-2,-1.29809845E-2,-2.2295263E-1,1.4640415E-1,-7.6477895E-3,-2.3272368E-1,8.893207E-2,-1.2665041E-1,1.7021082E-1,1.7485831E-2,-4.8609827E-2,-1.8623511E-1,2.5909891E-2,1.0720917E-2,1.7460534E-1,-2.3005784E-2,6.8304405E-2,-2.2948472E-2,-1.15516596E-1,1.20407745E-1,2.7157241E-2,1.722117E-1,-7.885136E-2,2.3761572E-2,-9.860859E-3,3.3979209E-3,-7.925571E-2,2.3663834E-1,-8.8040285E-2,-3.3382983E-3,-2.9825425E-2,-9.794197E-2,2.1000858E-1,5.2477818E-2,-1.8096651E-1,-2.6089108E-1,1.3440117E-3,9.668855E-3,-7.573121E-2,-1.7171091E-1,1.1620814E-1,1.8947531E-1,-3.3098273E-2,6.5233685E-2,-6.27696E-2,1.3853244E-2,-2.429649E-2,-8.669181E-2,1.9852698E-1,8.131422E-2,-1.0180593E-2,6.7297253E-3,1.42902015E-2,-2.9061338E-2,4.371941E-3,-1.6625544E-2,6.5275595E-2,1.9011487E-1,-8.633912E-3,2.1532295E-2,-1.540476E-2,-2.7413368E-3,1.0548711E-2,-2.74418E-1,1.21148586E-1,2.911951E-2,7.527471E-2,-1.4505494E-1,4.532087E-3,-7.035444E-2,-9.25978E-4,-1.4621848E-2,6.54145E-2,2.4746107E-1,-1.6516468E-2,1.02612905E-1,-1.14464805E-1,-2.0290695E-1,-2.6836157E-1,-9.424224E-3,-1.1413332E-2,-1.2983075E-1,-1.0402916E-1,-2.3080711E-1,1.3042154E-2,-1.2962878E-3,5.1635443E-3,1.935803E-2,1.3342388E-2,-5.5311047E-2,1.1104759E-1,9.947527E-4,-9.096737E-2,5.6935884E-2,-1.2245549E-2,1.8115839E-3,3.3208937E-3,2.0548008E-2,-3.4492493E-3,1.9548194E-2,6.584287E-4,-5.0176294E-3,1.3727406E-1,-2.681364E-2,4.2773844E-3,1.9509426E-1,-1.6045123E-3,7.041633E-3,2.1874703E-1,-8.649154E-2,-3.031382E-1,-2.9770931E-2,1.7957371E-1,5.702132E-2,-4.283157E-2,1.7512433E-1,-1.0620094E-1,-2.7634445E-1,-7.0241615E-3,7.723916E-2,-1.5794139E-1,5.952856E-2,1.7323851E-3,-1.8712819E-3,-3.9137892E-2,1.4163909E-2,2.5872333E-2,1.0112886E-1,2.3380289E-2,1.6319709E-1,-1.4731404E-2,-4.4787057E-2,-7.738503E-3,-2.1531114E-1,-2.7206598E-2,-7.6762694E-3,-6.772021E-2,1.5452408E-2,-1.5817071E-1,2.3071796E-2,-1.4314336E-1,-5.0600633E-2,-2.4447698E-2,-1.150084E-2,2.7160844E-4,-1.1647912E-1,1.574354E-1,4.2168997E-2,-9.3549676E-2,9.537339E-2,6.7471885E-3,-1.1357622E-1,-8.650224E-3,1.0354336E-2,-1.5223295E-3,1.7940671E-3,4.339496E-4,-1.0088245E-2,-8.272293E-3,1.5619405E-1,5.6428485E-2,-1.18116975E-1,2.0894362E-2,1.0898763E-1,-2.1907688E-5,1.0781527E-3,2.3972301E-1,6.891946E-2,-2.6083094E-1,2.4854295E-2,-4.8451587E-3,-3.168872E-1,-1.2836135E-2,8.370495E-3,1.9843346E-2,6.9423164E-3,1.2927982E-3,2.0519977E-2,-1.0154115E-1,2.240569E-1,2.2744927E-1,7.768283E-2,-1.7838435E-1,-1.1999904E-2,-2.9375273E-1,-6.799207E-3,8.706583E-3,-1.10503584E-1,-2.1817505E-1,1.4521782E-1,-2.726165E-2,-1.2342942E-1,-1.6615E-1,9.5549166E-2,-1.1059169E-2,1.2333864E-2,1.6215414E-2,-4.0973485E-3,9.090396E-2,-5.9294045E-2,1.7481374E-2,6.233146E-3,-5.1039713E-3,-1.301454E-3,-2.5289088E-2,-1.4160416E-1,-3.34752E-2,-1.1947263E-2,4.794136E-2,-1.9244032E-2,-5.223543E-2,-1.8674807E-1,-6.2685194E-3,7.2552525E-3,-8.849038E-2,-1.7393911E-2,-1.0029335E-1,4.901179E-2,-4.7377277E-2,3.001821E-2,-1.8331024E-1,-4.1373346E-2,6.283629E-2,1.7849572E-2,-5.678758E-4,5.109008E-2,-6.834008E-3,-1.7798735E-2,5.934566E-4,1.1207424E-2,-1.3807917E-1,-2.7153337E-2,9.7083155E-4,-2.2683651E-3,-1.2516737E-3,-2.6156308E-4,2.573669E-2,1.13049015E-1,1.0202226E-1,-5.356856E-3,-1.3953415E-2,5.193025E-4,1.32363085E-2,7.7429117E-4,2.7537663E-2,1.08485045E-2,1.0193261E-2,1.4465749E-4,-3.0802313E-2,-1.0123883E-2,6.0195965E-3,-1.7191937E-2,-1.1581827E-2,-3.389118E-2,7.1030892E-3,-2.8779644E-3,-1.9713352E-2,-5.45306E-4,5.959329E-3,2.5027448E-2,2.5042294E-2,1.1303844E-2,-5.55557E-4,1.379325E-2,-2.077936E-2,-4.4270713E-4,-1.1202952E-2,3.6987474E-3,-2.9845536E-2,-7.398522E-3,-9.7160274E-4,5.438576E-3,-1.8064294E-2,-3.5595193E-3,-1.5701259E-3,-2.804703E-2,2.2090573E-2,9.581937E-3,-5.1511044E-4,-1.6212476E-2,-1.97895E-2,5.9777456E-3,1.5972326E-2,-1.0041023E-3,1.1583445E-2,4.324749E-3,3.5713583E-3,-8.543829E-3,-2.1667944E-3,-1.579822E-2,-7.341668E-4,-3.8173168E-3,6.35333E-3,5.974343E-4,2.5726105E-3,-8.777958E-3,-6.2613906E-3,-5.360767E-4,-2.0400478E-2,1.0166214E-3,-9.961697E-3,-1.6428725E-3,-4.8148828E-3,-1.2736455E-2,6.113263E-3,6.3246343E-4,-6.0456875E-3,2.470553E-4,-5.767584E-4,6.72459E-3,-2.0107206E-2,-5.613148E-3,3.8169671E-3,-9.0687275E-3,1.5066147E-3,7.918829E-3,5.6847264E-3,1.1152088E-3,9.689805E-3,-1.590151E-2,-1.7373284E-2,-6.7527737E-3,-4.0509254E-3,1.3135165E-3,2.0268143E-3,1.3885646E-2,6.717622E-4,1.1973967E-2],"categories":[],"categories_nodes":[],"categories_segments":[],"categories_sizes":[],"default_left":[0,0,0,0,0,0,0,0,0,0,0,0,0,0,0,0,0,0,0,0,0,0,0,0,0,0,0,0,0,0,0,0,0,0,0,0,0,0,0,0,0,0,0,0,0,0,0,0,0,0,0,0,0,0,0,0,0,0,0,0,0,0,0,0,0,0,0,0,0,0,0,0,0,0,0,0,0,0,0,0,0,0,0,0,0,0,0,0,0,0,0,0,0,0,0,0,0,0,0,0,0,0,0,0,0,0,0,0,0,0,0,0,0,0,0,0,0,0,0,0,0,0,0,0,0,0,0,0,0,0,0,0,0,0,0,0,0,0,0,0,0,0,0,0,0,0,0,0,0,0,0,0,0,0,0,0,0,0,0,0,0,0,0,0,0,0,0,0,0,0,0,0,0,0,0,0,0,0,0,0,0,0,0,0,0,0,0,0,0,0,0,0,0,0,0,0,0,0,0,0,0,0,0,0,0,0,0,0,0,0,0,0,0,0,0,0,0,0,0,0,0,0,0,0,0,0,0,0,0,0,0,0,0,0,0,0,0,0,0,0,0,0,0,0,0,0,0,0,0,0,0,0,0,0,0,0,0,0,0,0,0,0,0,0,0,0,0,0,0,0,0,0,0,0,0,0,0,0,0,0,0,0,0,0,0,0,0,0,0,0,0,0,0,0,0,0,0,0,0,0,0,0,0,0,0,0,0,0,0,0,0,0,0,0,0,0,0,0,0,0,0,0,0,0,0,0,0,0,0,0,0,0,0,0,0,0,0,0,0,0,0,0,0,0,0,0,0,0,0,0,0,0,0,0,0,0,0,0,0],"id":4,"left_children":[1,3,5,7,9,11,13,15,17,19,21,-1,-1,23,25,27,29,31,33,35,37,39,41,43,45,47,49,51,53,55,-1,57,59,61,63,-1,65,67,69,71,73,75,77,-1,-1,79,81,83,-1,85,87,-1,89,91,-1,-1,-1,93,95,97,99,-1,101,103,105,107,109,-1,-1,111,113,115,117,119,121,123,-1,-1,125,127,129,-1,-1,-1,131,-1,-1,133,135,-1,-1,-1,137,139,141,143,-1,145,147,149,151,153,-1,155,157,-1,159,161,163,165,-1,167,169,171,173,-1,-1,-1,-1,-1,175,177,179,181,183,-1,185,-1,-1,187,-1,-1,-1,189,191,-1,193,-1,195,197,199,201,203,205,207,209,211,213,215,217,219,221,223,-1,-1,225,-1,-1,227,229,231,-1,233,-1,235,-1,-1,237,239,241,243,245,247,-1,-1,249,251,253,255,257,259,-1,261,263,-1,-1,-1,-1,265,-1,267,269,271,-1,273,-1,-1,275,277,279,281,-1,283,-1,-1,-1,-1,285,-1,287,289,291,293,295,297,299,-1,301,303,305,307,-1,309,311,313,-1,-1,-1,-1,315,317,-1,-1,-1,-1,-1,319,321,-1,323,325,327,329,-1,-1,331,-1,333,335,337,339,341,343,345,-1,-1,347,349,-1,-1,-1,351,353,-1,-1,-1,-1,-1,355,357,-1,-1,-1,-1,-1,-1,-1,-1,-1,-1,-1,-1,-1,-1,-1,-1,-1,-1,-1,-1,-1,-1,-1,-1,-1,-1,-1,-1,-1,-1,-1,-1,-1,-1,-1,-1,-1,-1,-1,-1,-1,-1,-1,-1,-1,-1,-1,-1,-1,-1,-1,-1,-1,-1,-1,-1,-1,-1,-1,-1,-1,-1,-1,-1,-1,-1,-1,-1,-1,-1,-1,-1,-1,-1,-1,-1,-1,-1,-1,-1,-1,-1,-1,-1,-1,-1,-1,-1,-1],"loss_changes":[2.3624573E0,1.3924432E0,2.678976E0,1.2933176E0,1.9425653E0,1.442194E-2,7.7146554E-1,1.1628199E0,8.154616E-1,4.522245E-1,8.741521E-1,0E0,0E0,1.18961334E-1,2.7564102E-1,1.2691092E-1,7.156661E-2,9.084136E-1,1.39165E0,8.4174156E-2,3.6261404E-1,4.3367696E-1,1.6425514E-1,1.3637543E-3,8.04165E-2,2.1447949E-1,2.4340463E-1,2.9850006E-3,3.473372E-1,1.8499253E-2,0E0,2.8377404E0,1.3350679E0,8.375049E-2,4.1314232E-1,0E0,3.442788E-2,3.970459E-3,1.5907955E-1,1.1272132E-2,1.1326212E-1,7.229301E-2,6.364298E-2,0E0,0E0,4.188049E-2,2.8198933E-2,4.0469185E-2,0E0,4.766585E-2,1.835885E-1,0E0,1.1890879E-1,3.3916827E-2,0E0,0E0,0E0,1.0019015E0,3.238647E-1,1.9663019E0,8.632153E-1,0E0,2.796616E-2,2.1125984E-1,3.4429383E-1,1.0333002E-2,1.7037153E-2,0E0,0E0,1.2726219E-1,1.3197899E-1,2.188617E-2,2.4525523E-3,9.245494E-2,7.052238E-2,8.2814164E-2,0E0,0E0,2.237828E-2,1.6165733E-2,6.841502E-2,0E0,0E0,0E0,2.5883424E-3,0E0,0E0,2.0258927E-1,7.7956915E-3,0E0,0E0,0E0,6.335861E-4,8.270644E-1,1.17448926E-1,6.469336E-2,0E0,6.561086E-1,7.6642704E-1,1.2314664E0,1.9660835E0,1.2979985E-3,0E0,8.523809E-2,2.8220415E-2,0E0,1.1619043E-1,1.1713125E-2,8.250117E-3,1.8277168E-3,0E0,2.8275508E-2,9.031433E-2,3.4553126E-2,3.5420656E-3,0E0,0E0,0E0,0E0,0E0,7.14292E-2,3.8092896E-2,1.07074864E-1,7.572365E-2,1.6179688E-2,0E0,1.0973872E-3,0E0,0E0,3.0232515E-4,0E0,0E0,0E0,8.368066E-2,1.1306913E-1,0E0,2.2706985E-3,0E0,8.382482E-5,2.433455E-2,5.5001783E-1,4.0673256E-2,4.430738E-2,6.998241E-3,9.057015E-2,4.3014264E-1,1.3528955E-1,8.2742894E-1,1.06974125E-1,2.0601394E0,4.0681376E0,3.7399054E-1,5.84911E-1,0E0,0E0,7.168805E-2,0E0,0E0,4.1331366E-2,7.237977E-2,5.5077076E-3,0E0,1.3039261E-4,0E0,2.9680133E-3,0E0,0E0,6.634202E-3,1.5576847E-2,4.171011E-2,2.152124E-2,3.1219274E-3,5.441568E-2,0E0,0E0,1.843089E-2,4.260987E-2,4.7222823E-3,3.2781037E-3,4.2716045E-2,8.297116E-3,0E0,3.2250136E-2,9.931196E-4,0E0,0E0,0E0,0E0,2.1702377E-5,0E0,4.07466E-2,4.5586623E-2,1.9211262E-2,0E0,1.0808323E-2,0E0,0E0,2.1596014E-2,6.5350262E-3,5.1662564E-2,1.3552642E-1,0E0,2.7174711E-2,0E0,0E0,0E0,0E0,2.0918995E-2,0E0,2.0100133E-1,6.644517E-3,2.163297E-2,6.0947314E-2,3.5208082E-1,2.6875386E-1,1.099062E-2,0E0,9.2536956E-1,8.709924E-1,4.748963E-1,5.920069E-1,0E0,3.698871E-1,8.3550304E-2,4.1494924E-1,0E0,0E0,0E0,0E0,3.3071376E-3,1.7954722E-2,0E0,0E0,0E0,0E0,0E0,1.0327101E-2,3.336179E-4,0E0,4.200861E-3,2.3832597E-2,2.0967778E-3,4.624915E-2,0E0,0E0,3.1742193E-3,0E0,3.748849E-3,1.6829753E-3,3.4093093E-3,1.1045625E-2,8.150935E-6,2.6996974E-2,1.1503501E-3,0E0,0E0,7.45615E-4,7.855248E-2,0E0,0E0,0E0,2.0968646E-2,3.2225454E-3,0E0,0E0,0E0,0E0,0E0,2.8313324E-2,9.326946E-3,0E0,0E0,0E0,0E0,0E0,0E0,0E0,0E0,0E0,0E0,0E0,0E0,0E0,0E0,0E0,0E0,0E0,0E0,0E0,0E0,0E0,0E0,0E0,0E0,0E0,0E0,0E0,0E0,0E0,0E0,0E0,0E0,0E0,0E0,0E0,0E0,0E0,0E0,0E0,0E0,0E0,0E0,0E0,0E0,0E0,0E0,0E0,0E0,0E0,0E0,0E0,0E0,0E0,0E0,0E0,0E0,0E0,0E0,0E0,0E0,0E0,0E0,0E0,0E0,0E0,0E0,0E0,0E0,0E0,0E0,0E0,0E0,0E0,0E0,0E0,0E0,0E0,0E0,0E0,0E0,0E0,0E0,0E0,0E0,0E0,0E0,0E0,0E0,0E0],"parents":[2147483647,0,0,1,1,2,2,3,3,4,4,5,5,6,6,7,7,8,8,9,9,10,10,13,13,14,14,15,15,16,16,17,17,18,18,19,19,20,20,21,21,22,22,23,23,24,24,25,25,26,26,27,27,28,28,29,29,31,31,32,32,33,33,34,34,36,36,37,37,38,38,39,39,40,40,41,41,42,42,45,45,46,46,47,47,49,49,50,50,52,52,53,53,57,57,58,58,59,59,60,60,62,62,63,63,64,64,65,65,66,66,69,69,70,70,71,71,72,72,73,73,74,74,75,75,78,78,79,79,80,80,84,84,87,87,88,88,92,92,93,93,94,94,95,95,97,97,98,98,99,99,100,100,101,101,103,103,104,104,106,106,107,107,108,108,109,109,111,111,112,112,113,113,114,114,120,120,121,121,122,122,123,123,124,124,126,126,129,129,133,133,134,134,136,136,138,138,139,139,140,140,141,141,142,142,143,143,144,144,145,145,146,146,147,147,148,148,149,149,150,150,151,151,152,152,155,155,158,158,159,159,160,160,162,162,164,164,167,167,168,168,169,169,170,170,171,171,172,172,175,175,176,176,177,177,178,178,179,179,180,180,182,182,183,183,188,188,190,190,191,191,192,192,194,194,197,197,198,198,199,199,200,200,202,202,207,207,209,209,210,210,211,211,212,212,213,213,214,214,215,215,217,217,218,218,219,219,220,220,222,222,223,223,224,224,229,229,230,230,236,236,237,237,239,239,240,240,241,241,242,242,245,245,247,247,248,248,249,249,250,250,251,251,252,252,253,253,256,256,257,257,261,261,262,262,268,268,269,269],"right_children":[2,4,6,8,10,12,14,16,18,20,22,-1,-1,24,26,28,30,32,34,36,38,40,42,44,46,48,50,52,54,56,-1,58,60,62,64,-1,66,68,70,72,74,76,78,-1,-1,80,82,84,-1,86,88,-1,90,92,-1,-1,-1,94,96,98,100,-1,102,104,106,108,110,-1,-1,112,114,116,118,120,122,124,-1,-1,126,128,130,-1,-1,-1,132,-1,-1,134,136,-1,-1,-1,138,140,142,144,-1,146,148,150,152,154,-1,156,158,-1,160,162,164,166,-1,168,170,172,174,-1,-1,-1,-1,-1,176,178,180,182,184,-1,186,-1,-1,188,-1,-1,-1,190,192,-1,194,-1,196,198,200,202,204,206,208,210,212,214,216,218,220,222,224,-1,-1,226,-1,-1,228,230,232,-1,234,-1,236,-1,-1,238,240,242,244,246,248,-1,-1,250,252,254,256,258,260,-1,262,264,-1,-1,-1,-1,266,-1,268,270,272,-1,274,-1,-1,276,278,280,282,-1,284,-1,-1,-1,-1,286,-1,288,290,292,294,296,298,300,-1,302,304,306,308,-1,310,312,314,-1,-1,-1,-1,316,318,-1,-1,-1,-1,-1,320,322,-1,324,326,328,330,-1,-1,332,-1,334,336,338,340,342,344,346,-1,-1,348,350,-1,-1,-1,352,354,-1,-1,-1,-1,-1,356,358,-1,-1,-1,-1,-1,-1,-1,-1,-1,-1,-1,-1,-1,-1,-1,-1,-1,-1,-1,-1,-1,-1,-1,-1,-1,-1,-1,-1,-1,-1,-1,-1,-1,-1,-1,-1,-1,-1,-1,-1,-1,-1,-1,-1,-1,-1,-1,-1,-1,-1,-1,-1,-1,-1,-1,-1,-1,-1,-1,-1,-1,-1,-1,-1,-1,-1,-1,-1,-1,-1,-1,-1,-1,-1,-1,-1,-1,-1,-1,-1,-1,-1,-1,-1,-1,-1,-1,-1,-1],"split_conditions":[2.19E2,2.25E2,2.08E2,2.5E1,1.87E2,1.2E1,2.05E2,2.6E1,2.21E2,1.36E2,1.84E2,-6.3286945E-3,-2.8126044E-2,2.12E2,7.5E1,2.08E2,4E1,3.8E1,2.05E2,2.3E1,1.1E1,1.43E2,1.55E2,1.97E2,1.93E2,2.3E1,3.1E1,1.65E2,1.92E2,1.9E1,-2.771437E-2,4.5E1,3.4E1,1.94E2,2.25E2,-7.6477895E-3,1.02E2,1.57E2,1.32E2,1.09E2,2.06E2,2.18E2,2.06E2,2.5909891E-2,1.0720917E-2,1.3E2,1.58E2,5.8E1,-2.2948472E-2,8.8E1,2.38E2,2.7157241E-2,9.6E1,2.44E2,2.3761572E-2,-9.860859E-3,3.3979209E-3,4E1,3.7E1,5.8E1,2.18E2,-2.9825425E-2,2.24E2,5E1,5.7E1,1.3E1,2.27E2,1.3440117E-3,9.668855E-3,1.64E2,1.19E2,1.6E2,9E0,2.1E1,2.11E2,1.45E2,1.3853244E-2,-2.429649E-2,1.47E2,2.2E2,2.32E2,-1.0180593E-2,6.7297253E-3,1.42902015E-2,6.2E1,4.371941E-3,-1.6625544E-2,7.9E1,6.3E1,-8.633912E-3,2.1532295E-2,-1.540476E-2,1.2E1,8.8E1,2.54E2,1.27E2,2.911951E-2,8.7E1,1.42E2,1.95E2,1.81E2,1.49E2,-1.4621848E-2,8.5E1,2.22E2,-1.6516468E-2,1.48E2,1.01E2,5.9E1,2.47E2,-9.424224E-3,1.58E2,1.81E2,1.46E2,1.21E2,1.3042154E-2,-1.2962878E-3,5.1635443E-3,1.935803E-2,1.3342388E-2,1.89E2,2.38E2,1.19E2,2.4E1,2.04E2,-1.2245549E-2,1.81E2,3.3208937E-3,2.0548008E-2,1.76E2,1.9548194E-2,6.584287E-4,-5.0176294E-3,9.2E1,2.3E2,4.2773844E-3,1.49E2,-1.6045123E-3,2.45E2,2.4E1,1.32E2,1E0,3.5E1,3.3E1,1.87E2,2.14E2,1.61E2,1.65E2,2.46E2,2.17E2,1.89E2,9E1,1.8E1,1.7323851E-3,-1.8712819E-3,1.59E2,1.4163909E-2,2.5872333E-2,1.32E2,2.23E2,2.38E2,-1.4731404E-2,2.21E2,-7.738503E-3,8.3E1,-2.7206598E-2,-7.6762694E-3,1.53E2,1.76E2,1.06E2,9.6E1,1.05E2,1.72E2,-2.4447698E-2,-1.150084E-2,1.96E2,8E1,2.9E1,4E1,1.21E2,1.41E2,6.7471885E-3,2.12E2,1.02E2,1.0354336E-2,-1.5223295E-3,1.7940671E-3,4.339496E-4,1.6E2,-8.272293E-3,2.4E1,1.74E2,2.15E2,2.0894362E-2,1.28E2,-2.1907688E-5,1.0781527E-3,7.1E1,2.3E1,1.21E2,2.05E2,-4.8451587E-3,1E0,-1.2836135E-2,8.370495E-3,1.9843346E-2,6.9423164E-3,1.41E2,2.0519977E-2,9.1E1,1.4E1,1.25E2,1.47E2,2.31E2,1.03E2,2.46E2,-6.799207E-3,1.78E2,1.55E2,2E2,1.32E2,-2.726165E-2,4.6E1,2.15E2,2.41E2,-1.1059169E-2,1.2333864E-2,1.6215414E-2,-4.0973485E-3,1.32E2,2.33E2,1.7481374E-2,6.233146E-3,-5.1039713E-3,-1.301454E-3,-2.5289088E-2,4.3E1,1.08E2,-1.1947263E-2,1.87E2,1.92E2,1.4E2,1.95E2,-6.2685194E-3,7.2552525E-3,8.6E1,-1.7393911E-2,1.67E2,1.96E2,2.16E2,1.52E2,1.79E2,1.28E2,1.65E2,1.7849572E-2,-5.678758E-4,2.05E2,1.01E2,-1.7798735E-2,5.934566E-4,1.1207424E-2,2.32E2,5.6E1,9.7083155E-4,-2.2683651E-3,-1.2516737E-3,-2.6156308E-4,2.573669E-2,1.21E2,8.6E1,-5.356856E-3,-1.3953415E-2,5.193025E-4,1.32363085E-2,7.7429117E-4,2.7537663E-2,1.08485045E-2,1.0193261E-2,1.4465749E-4,-3.0802313E-2,-1.0123883E-2,6.0195965E-3,-1.7191937E-2,-1.1581827E-2,-3.389118E-2,7.1030892E-3,-2.8779644E-3,-1.9713352E-2,-5.45306E-4,5.959329E-3,2.5027448E-2,2.5042294E-2,1.1303844E-2,-5.55557E-4,1.379325E-2,-2.077936E-2,-4.4270713E-4,-1.1202952E-2,3.6987474E-3,-2.9845536E-2,-7.398522E-3,-9.7160274E-4,5.438576E-3,-1.8064294E-2,-3.5595193E-3,-1.5701259E-3,-2.804703E-2,2.2090573E-2,9.581937E-3,-5.1511044E-4,-1.6212476E-2,-1.97895E-2,5.9777456E-3,1.5972326E-2,-1.0041023E-3,1.1583445E-2,4.324749E-3,3.5713583E-3,-8.543829E-3,-2.1667944E-3,-1.579822E-2,-7.341668E-4,-3.8173168E-3,6.35333E-3,5.974343E-4,2.5726105E-3,-8.777958E-3,-6.2613906E-3,-5.360767E-4,-2.0400478E-2,1.0166214E-3,-9.961697E-3,-1.6428725E-3,-4.8148828E-3,-1.2736455E-2,6.113263E-3,6.3246343E-4,-6.0456875E-3,2.470553E-4,-5.767584E-4,6.72459E-3,-2.0107206E-2,-5.613148E-3,3.8169671E-3,-9.0687275E-3,1.5066147E-3,7.918829E-3,5.6847264E-3,1.1152088E-3,9.689805E-3,-1.590151E-2,-1.7373284E-2,-6.7527737E-3,-4.0509254E-3,1.3135165E-3,2.0268143E-3,1.3885646E-2,6.717622E-4,1.1973967E-2],"split_indices":[10,1,1,10,10,2,4,1,11,10,4,0,0,7,9,0,1,9,2,2,7,7,0,4,0,0,0,8,9,10,0,3,0,2,8,0,9,10,7,11,10,10,10,0,0,6,9,9,0,9,10,0,9,0,0,0,0,0,6,9,2,0,11,3,10,4,0,0,0,5,4,0,0,2,10,11,0,0,9,10,10,0,0,0,9,0,0,3,11,0,0,0,10,11,7,10,0,6,9,9,11,0,0,9,0,0,9,10,5,3,0,10,10,3,5,0,0,0,0,0,7,1,2,7,10,0,0,0,0,0,0,0,0,9,10,0,2,0,0,9,11,1,9,9,10,3,2,6,4,0,0,11,1,0,0,10,0,0,10,5,11,0,2,0,9,0,0,10,10,11,0,9,10,0,0,10,3,5,2,11,11,0,10,9,0,0,0,0,9,0,7,9,0,0,9,0,0,11,0,10,11,0,3,0,0,0,0,10,0,2,0,10,11,3,3,3,0,4,9,9,3,0,5,11,2,0,0,0,0,0,11,0,0,0,0,0,4,0,0,11,6,9,11,0,0,9,0,7,3,9,0,6,9,0,0,0,3,0,0,0,0,4,2,0,0,0,0,0,9,0,0,0,0,0,0,0,0,0,0,0,0,0,0,0,0,0,0,0,0,0,0,0,0,0,0,0,0,0,0,0,0,0,0,0,0,0,0,0,0,0,0,0,0,0,0,0,0,0,0,0,0,0,0,0,0,0,0,0,0,0,0,0,0,0,0,0,0,0,0,0,0,0,0,0,0,0,0,0,0,0,0,0,0,0,0,0,0,0,0],"split_type":[0,0,0,0,0,0,0,0,0,0,0,0,0,0,0,0,0,0,0,0,0,0,0,0,0,0,0,0,0,0,0,0,0,0,0,0,0,0,0,0,0,0,0,0,0,0,0,0,0,0,0,0,0,0,0,0,0,0,0,0,0,0,0,0,0,0,0,0,0,0,0,0,0,0,0,0,0,0,0,0,0,0,0,0,0,0,0,0,0,0,0,0,0,0,0,0,0,0,0,0,0,0,0,0,0,0,0,0,0,0,0,0,0,0,0,0,0,0,0,0,0,0,0,0,0,0,0,0,0,0,0,0,0,0,0,0,0,0,0,0,0,0,0,0,0,0,0,0,0,0,0,0,0,0,0,0,0,0,0,0,0,0,0,0,0,0,0,0,0,0,0,0,0,0,0,0,0,0,0,0,0,0,0,0,0,0,0,0,0,0,0,0,0,0,0,0,0,0,0,0,0,0,0,0,0,0,0,0,0,0,0,0,0,0,0,0,0,0,0,0,0,0,0,0,0,0,0,0,0,0,0,0,0,0,0,0,0,0,0,0,0,0,0,0,0,0,0,0,0,0,0,0,0,0,0,0,0,0,0,0,0,0,0,0,0,0,0,0,0,0,0,0,0,0,0,0,0,0,0,0,0,0,0,0,0,0,0,0,0,0,0,0,0,0,0,0,0,0,0,0,0,0,0,0,0,0,0,0,0,0,0,0,0,0,0,0,0,0,0,0,0,0,0,0,0,0,0,0,0,0,0,0,0,0,0,0,0,0,0,0,0,0,0,0,0,0,0,0,0,0,0,0,0,0,0,0,0,0,0],"sum_hessian":[2.5E3,2.343E3,1.57E2,2.088E3,2.55E2,1.5E1,1.42E2,5.1E1,2.037E3,1.42E2,1.13E2,1E0,1.4E1,8E1,6.2E1,4.4E1,7E0,1.956E3,8.1E1,6E1,8.2E1,7.6E1,3.7E1,5.3E1,2.7E1,8E0,5.4E1,3.1E1,1.3E1,3E0,4E0,1.12E2,1.844E3,1.1E1,7E1,5E0,5.5E1,8E0,7.4E1,3.1E1,4.5E1,2.3E1,1.4E1,5.1E1,2E0,2.5E1,2E0,4E0,4E0,4E0,5E1,2.3E1,8E0,5E0,8E0,2E0,1E0,5.6E1,5.6E1,2.09E2,1.635E3,6E0,5E0,4.1E1,2.9E1,2.2E1,3.3E1,1E0,7E0,3.6E1,3.8E1,1E1,2.1E1,2.2E1,2.3E1,2.2E1,1E0,8E0,6E0,1.9E1,6E0,1E0,1E0,2E0,2E0,1E0,3E0,2.9E1,2.1E1,1E0,7E0,2E0,3E0,3.9E1,1.7E1,1.9E1,3.7E1,5.4E1,1.55E2,1.464E3,1.71E2,2E0,3E0,9E0,3.2E1,5E0,2.4E1,7E0,1.5E1,3.1E1,2E0,1.7E1,1.9E1,1.9E1,1.9E1,9E0,1E0,1E0,2E1,2E0,2E1,1.3E1,1E1,1.8E1,4E0,4E0,2E0,1E0,1.8E1,4E0,2E0,1E0,1E0,1.6E1,1.3E1,1E0,2E1,1E0,2E0,1.2E1,2.7E1,1.5E1,2E0,9E0,1E1,2.5E1,2.9E1,1.21E2,3.4E1,1.264E3,2E2,1.02E2,6.9E1,1E0,1E0,4E0,5E0,2.9E1,3E0,1.1E1,1.3E1,4E0,3E0,2E0,1.3E1,3E1,1E0,5E0,1.2E1,1.6E1,3E0,1E1,9E0,1.6E1,3E0,1.1E1,9E0,7E0,6E0,5E0,5E0,2E0,1.6E1,2E0,2E0,1E0,1E0,2E0,2E0,1E0,1.5E1,7E0,6E0,1.6E1,4E0,1E0,1E0,1E1,2E0,1E1,1.7E1,1E0,1.4E1,1E0,1E0,7E0,2E0,8E0,2E0,2.1E1,4E0,1.8E1,1.1E1,6.8E1,5.3E1,3.1E1,3E0,1.098E3,1.66E2,3.7E1,1.63E2,2.2E1,8E1,9E0,6E1,3E0,1E0,2E0,1E0,6E0,5E0,1.1E1,2E0,2E0,1E0,7E0,6E0,4E0,1E0,6E0,6E0,4E0,1.2E1,1E0,2E0,5E0,5E0,6E0,3E0,4E0,7E0,4E0,5E0,2E0,5E0,1E0,5E0,3E0,2E0,1E0,4E0,1.2E1,4E0,1E0,1E0,1E0,1E0,3E0,1.2E1,5E0,2E0,5E0,1E0,3E0,1E0,7E0,3E0,1E0,1E0,7E0,3E0,1.5E1,2E0,2E0,1.2E1,2E0,6E0,1E1,1.1E1,1E0,3E0,1.4E1,4E0,5E0,6E0,5.8E1,1E1,1.7E1,3.6E1,3E1,1E0,7.83E2,3.15E2,8.5E1,8.1E1,9E0,2.8E1,6.3E1,1E2,2E1,6E1,8E0,1E0,3.7E1,2.3E1,3E0,3E0,1E0,4E0,1E0,5E0,1E0,3E0,4E0,2E0,4E0,2E0,3E0,1E0,1.1E1,1E0,4E0,1E0,3E0,3E0,2E0,1E0,3E0,1E0,4E0,3E0,3E0,1E0,2E0,3E0,1E0,1E0,4E0,1E0,2E0,1E0,7E0,5E0,3E0,1E0,3E0,9E0,1E0,4E0],"tree_param":{"num_deleted":"0","num_feature":"12","num_nodes":"359","size_leaf_vector":"1"}},{"base_weights":[-1.8939377E-4,-7.4084774E-3,1.0691011E-1,5.7686858E-2,-1.5277364E-2,-2.4658668E-1,1.4571458E-1,1.3606137E-1,-2.7987224E-1,-1.1394892E-1,-1.0883493E-3,-6.0122595E-3,-2.5500944E-2,2.0388223E-1,6.861465E-2,4.3265346E-2,2.0220464E-1,-3.0111262E-1,-1.1244823E-1,-1.2766362E-2,-1.8436795E-1,9.492824E-3,-6.738432E-2,2.3475246E-1,1.5186639E-1,3.806371E-2,1.9528417E-1,1.2618192E-1,-2.9986667E-2,8.3709426E-2,2.4618892E-1,-1.5433127E-1,-3.167768E-1,-2.4163187E-3,-1.2313521E-2,-1.7272165E-1,5.3019993E-2,-1.3772249E-1,-2.559279E-1,7.057316E-4,6.1291378E-2,-1.3704672E-1,1.8146023E-2,2.4780933E-2,1.5904974E-2,5.0158232E-2,1.773202E-1,1.12451546E-1,-8.173271E-3,2.1528271E-1,1.0146642E-1,3.6803693E-2,2.0955147E-1,-1.611923E-1,3.6553234E-2,-4.162119E-2,1.238735E-1,1.7784663E-1,2.7903843E-1,3.6532402E-3,-1.9981048E-1,-8.954599E-3,-3.2060143E-2,-2.3515582E-1,-6.338281E-2,-9.366538E-3,1.34031E-1,-2.0463456E-1,-7.2070695E-2,-2.9317433E-1,-1.7279527E-1,1.3545463E-2,-1.0454993E-1,-2.3067455E-1,1.2430361E-1,-1.9500446E-1,-9.559325E-2,7.358792E-2,-9.467428E-2,8.495673E-2,-9.671563E-3,1.513532E-1,2.5611093E-2,-1.8136045E-2,1.6971308E-1,4.689096E-2,-1.8611036E-2,8.759567E-3,2.3925105E-2,1.303847E-2,7.3557795E-4,2.0464605E-2,-1.47266295E-2,1.13166064E-1,2.3259904E-2,-2.0916833E-2,-1.3811368E-2,-8.861306E-2,8.9384094E-2,8.99632E-2,-2.2859247E-1,2.4345886E-2,7.582495E-2,2.1646788E-2,5.9387114E-2,2.8441733E-1,-1.108995E-3,-2.2836337E-2,-4.2799474E-3,-2.6799121E-1,-8.305135E-2,-8.412044E-3,-1.4965365E-2,4.625711E-2,-1.2369764E-1,1.1914521E-2,1.4991604E-1,-2.5474826E-1,-1.4126602E-1,-1.2642063E-1,7.671632E-2,-1.0330032E-2,-3.0044926E-2,-6.080631E-3,-1.9556877E-1,-5.5733365E-3,5.6875788E-2,-1.7409076E-1,-4.248832E-2,-2.8490549E-2,-2.5176227E-1,1.7864722E-1,5.4247342E-2,-1.1935727E-1,-2.1917948E-1,8.126253E-2,-1.1554137E-1,1.5432309E-1,1.5824575E-2,-4.363244E-2,-1.7002963E-1,1.2468972E-1,-9.583831E-3,1.7984216E-1,4.5408975E-2,-1.5575232E-2,6.806092E-2,1.8200895E-1,4.9333874E-4,-3.212524E-2,1.0697786E-1,1.07661866E-1,-1.3547882E-1,2.5230944E-3,1.5082589E-2,-1.5339516E-2,5.943337E-2,-2.4009809E-2,1.0608809E-2,3.385938E-2,1.892605E-1,1.3159548E-2,3.6248192E-2,-2.589303E-2,-6.878951E-3,6.4876336E-3,2.0366746E-1,-7.01805E-2,1.06432214E-1,1.7665268E-1,2.9869786E-1,-2.9611504E-2,-1.4689584E-2,-1.375443E-2,-3.504204E-2,-4.10967E-2,7.0656175E-3,1.3936989E-2,1.3743534E-2,3.9077688E-2,-1.8644118E-1,6.028232E-3,-1.5248008E-2,1.6536331E-1,6.0566355E-2,-2.8013421E-2,-9.717768E-2,3.2032985E-2,-1.5929607E-1,-1.4345686E-1,1.130262E-2,1.3726184E-2,-3.4380215E-3,-3.6867724E-3,-2.0318335E-1,-4.2727347E-2,2.0954933E-2,1.397324E-1,7.913418E-3,-9.6335694E-2,-1.9574633E-1,5.8265988E-2,-7.5364955E-2,1.053947E-2,-1.5287896E-2,-2.5704069E-2,-3.0869842E-3,2.2994551E-1,5.8201138E-2,-1.4191821E-1,7.967945E-2,-1.6539036E-1,-7.519839E-2,-4.6269954E-3,-2.2226825E-1,1.2768105E-3,8.822832E-3,-6.926479E-2,-1.5648219E-1,1.191004E-1,1.8630211E-1,-3.0539772E-2,5.9597716E-2,-5.6973483E-2,1.3160581E-2,-2.21368E-2,-7.973318E-2,7.2906615E-4,1.5221682E-2,-1.1890903E-3,-2.484843E-4,1.8896839E-1,1.6911179E-3,1.125747E-2,1.0808325E-2,1.449746E-3,7.7827424E-3,6.704118E-2,1.9681753E-1,7.371094E-2,-1.1825264E-1,-1.5379622E-3,1.16816215E-1,-1.6527904E-2,1.6243936E-1,2.5812455E-2,-2.2042654E-2,-4.7461465E-3,1.1088547E-1,8.450146E-2,-1.1608189E-2,1.1261077E-1,-2.4652531E-2,2.1963973E-2,-1.1697024E-3,8.99138E-3,5.9009315E-3,-4.630939E-2,1.1078415E-2,8.887019E-3,2.3181234E-2,-8.787207E-3,-1.739867E-3,4.349492E-3,1.2290816E-2,1.8778953E-1,4.3778955E-3,1.5074966E-2,3.0521108E-2,-7.0573734E-3,3.2643476E-4,-9.856492E-3,1.6035736E-3,4.61123E-2,-1.5846765E-1,5.5179237E-3,-1.2664258E-3,5.678858E-3,-2.1644302E-1,-2.0477772E-3,2.206415E-5,1.21928744E-1,2.1832231E-2,6.7077293E-3,1.400584E-3,-9.537488E-5,-1.2099522E-2,6.7106024E-3,-1.9056544E-3,-1.15960136E-1,-2.483092E-2,-1.9234966E-2,-1.13836095E-1,3.2212E-3,-1.3374299E-2,1.2401323E-2,-4.9237045E-3,-5.360675E-3,-2.0958133E-1,-7.871939E-2,1.0185122E-1,1.1194648E-1,4.9757045E-3,1.8878993E-1,-1.5669361E-1,-7.143456E-2,7.356164E-2,-1.30753415E-2,1.2417519E-2,-2.4258307E-1,-1.4526413E-1,1.1499113E-1,-9.325786E-2,-5.258843E-2,-1.9858877E-1,3.0929446E-1,1.6554755E-1,1.21334605E-1,-7.909622E-2,-6.700601E-2,-1.8069202E-1,1.8715839E-1,3.8677533E-3,-1.8609392E-2,-2.0584539E-3,-9.660458E-3,-3.4471285E-3,-1.7860566E-1,-2.518584E-1,-1.1147177E-2,-1.1810741E-1,-9.561645E-2,-2.0952383E-1,1.3223822E-2,9.331842E-3,4.905367E-3,1.9260174E-2,1.2452897E-2,-5.1238175E-2,1.0233619E-1,-2.1467697E-4,-8.292939E-2,5.3053655E-2,-1.1265906E-1,1.7210146E-3,9.213905E-3,2.04226E-2,3.15485E-3,-1.702413E-3,6.38175E-4,9.418002E-3,2.0664034E-2,4.929468E-3,1.3127262E-2,-2.7608275E-2,-1.7261642E-1,1.1771212E-2,1.4239103E-2,7.0899844E-2,1.8233279E-2,6.8506054E-3,-9.912597E-3,1.0050058E-2,3.4549758E-3,1.3177845E-2,2.1713288E-3,9.477018E-3,1.39920255E-2,2.9558062E-3,-3.9212405E-6,-8.207054E-3,1.8902555E-3,-5.415484E-4,-8.311279E-4,-1.3220121E-2,1.9877458E-2,5.544713E-3,1.6457647E-3,-1.5967995E-3,-3.6371157E-3,2.0190047E-3,-2.5757519E-3,8.388704E-3,-3.2890067E-3,-1.893635E-2,-2.2943322E-2,-4.976568E-3,4.442544E-3,1.298274E-2,-1.26464935E-2,2.0805926E-3,-2.0127664E-3,-1.2180225E-2,-1.9499854E-3,-5.6159497E-5,-1.1215702E-3,3.9756913E-3,-2.3183096E-2,-1.1871592E-2,-4.1221986E-3,-1.6282724E-2,1.9540515E-2,-2.940085E-3,1.8307885E-2,-3.05625E-2,-2.0371787E-2,3.9938386E-3,9.621931E-3,2.6539296E-2,1.2763758E-3,-2.7072882E-2,-7.105263E-5,-2.1488301E-2,1.2951925E-3,1.4422466E-2,-3.1825348E-3,3.1434575E-3,-7.2691105E-3,-2.5371194E-2,-2.3074156E-2,-9.95361E-3,5.8654957E-3,1.4603137E-2,1.888466E-3,-1.194633E-2,1.3028644E-3,-1.1870661E-2,-2.2973787E-2,-5.971129E-3,3.2928236E-2,1.9086884E-2,1.7962135E-2,2.26624E-3,-1.0270505E-2,1.7390639E-2,-1.8926494E-2,9.095924E-3,-2.1055928E-3,-9.062075E-3,-1.9841578E-2,-4.603663E-3,2.1841541E-2,-1.9061178E-3,-3.1278194E-3,1.7032752E-2,-2.1546861E-2,-1.28857E-2,-2.6385034E-2,-8.795943E-3,-6.369798E-3,1.3964514E-3,-1.4389372E-2,2.10113E-3,-1.3146524E-2,-4.6621137E-3,-2.2529555E-2,-1.1714948E-2,2.63125E-3,-1.2314738E-3,2.7354807E-5,-1.0792843E-2,1.4510125E-2,3.884239E-3,-8.819645E-3,8.7802885E-3,6.297376E-3,-1.0379881E-2,-8.217712E-4,9.664047E-3,-3.2247156E-3,-1.2470025E-2,-1.4462129E-3,1.704365E-3,-9.4801484E-4,4.0502154E-4,6.2550604E-4,-4.7667474E-3,-5.2017677E-3,-1.897617E-2,-2.2978322E-3,4.063514E-3,1.5332421E-3,9.006034E-3],"categories":[],"categories_nodes":[],"categories_segments":[],"categories_sizes":[],"default_left":[0,0,0,0,0,0,0,0,0,0,0,0,0,0,0,0,0,0,0,0,0,0,0,0,0,0,0,0,